{
    "Layers": [
        {
            "NumNeurons": 128,
            "InputSize": 784,
            "Weights": [
                0.012668892741203308,
                -0.033709362149238589,
                -0.02060682326555252,
                0.008032008074223996,
                -0.04270803928375244,
                0.04691741243004799,
                0.010552015155553818,
                0.009506008587777615,
                -0.0072065237909555439,
                -0.03355798497796059,
                -0.023255886510014535,
                -0.012667307630181313,
                -0.04857486113905907,
                -0.04651745781302452,
                -0.016354119405150415,
                0.02311348356306553,
                -0.022883765399456025,
                -0.03567255288362503,
                -0.015860559418797494,
                0.005960075184702873,
                0.031023062765598298,
                -0.022012436762452127,
                0.04235135391354561,
                -0.020487572997808458,
                -0.02892945148050785,
                -0.017558135092258455,
                -0.03906421363353729,
                -0.041597213596105579,
                0.012731226161122322,
                -0.011184840463101864,
                0.013925488106906414,
                -0.0009533541742712259,
                -0.037583913654088977,
                -0.042204659432172778,
                -0.02831796370446682,
                0.004253586288541555,
                -0.013142692856490612,
                0.012182486243546009,
                0.01388389989733696,
                -0.00615258514881134,
                -0.02475876919925213,
                0.04221836104989052,
                0.03899376466870308,
                0.01044866256415844,
                0.01767101138830185,
                0.021665038540959359,
                0.014211204834282399,
                -0.03517863526940346,
                0.0377170629799366,
                0.0427623949944973,
                -0.014111584983766079,
                0.04015447199344635,
                0.02362135238945484,
                0.026183340698480607,
                0.04263429343700409,
                -0.015318671241402626,
                -0.026060715317726136,
                0.049880750477313998,
                -0.01303942408412695,
                0.024566493928432466,
                0.035698048770427707,
                0.0020636278204619886,
                0.04397926852107048,
                -0.05720679834485054,
                -0.01635262556374073,
                -0.020142849534749986,
                -0.1809527575969696,
                -0.17511533200740815,
                -0.12909890711307527,
                -0.1925438940525055,
                -0.17135077714920045,
                -0.1484779417514801,
                -0.17297975718975068,
                -0.19862447679042817,
                -0.16072583198547364,
                -0.1029253676533699,
                -0.024065056815743448,
                -0.06350843608379364,
                -0.01880509965121746,
                -0.028977178037166597,
                0.011130734346807003,
                0.03723551705479622,
                -0.033860959112644199,
                0.01912408135831356,
                -0.04805565997958183,
                0.023642413318157197,
                0.02541377767920494,
                -0.0156391691416502,
                -0.05198482796549797,
                0.015065768733620644,
                -0.06564699858427048,
                -0.06860619783401489,
                -0.19737575948238374,
                -0.30198103189468386,
                -0.13219241797924043,
                -0.2656700611114502,
                -0.5088165402412415,
                -0.48737743496894839,
                -0.3601730465888977,
                -0.29464465379714968,
                -0.06264396011829376,
                -0.042500127106904986,
                -0.24432021379470826,
                -0.0885009765625,
                0.061279166489839557,
                0.11916137486696243,
                0.13316169381141663,
                0.012302057817578316,
                0.03231481835246086,
                -0.04844852536916733,
                0.006500582210719585,
                -0.04071332514286041,
                0.008074227720499039,
                -0.039178621023893359,
                -0.036872174590826038,
                0.04434715211391449,
                -0.02851473167538643,
                -0.17583361268043519,
                -0.16835232079029084,
                0.001253258902579546,
                -0.2252226620912552,
                -0.23709948360919953,
                -0.5028115510940552,
                -0.329664021730423,
                -0.525154173374176,
                -0.03815774992108345,
                0.3525409400463104,
                0.47160327434539797,
                0.5599297881126404,
                0.8745479583740234,
                0.7605436444282532,
                0.251644104719162,
                0.3707844316959381,
                0.44882720708847048,
                0.5376067757606506,
                0.2682933807373047,
                0.1555895358324051,
                -0.017129510641098024,
                -0.04220462962985039,
                -0.0278384517878294,
                -0.028374221175909044,
                0.024338584393262864,
                0.02460155077278614,
                -0.0586063414812088,
                -0.07029752433300019,
                -0.22827546298503877,
                -0.10531169921159744,
                -0.06377134472131729,
                -0.09291203320026398,
                0.001185804489068687,
                0.06557133793830872,
                0.18467380106449128,
                0.42190077900886538,
                0.8378787636756897,
                0.20516729354858399,
                0.20775264501571656,
                0.48396897315979006,
                0.7248751521110535,
                1.3513506650924683,
                0.6234066486358643,
                0.3992082476615906,
                0.3774774670600891,
                0.24467456340789796,
                0.07737962901592255,
                0.06500133126974106,
                0.014881434850394726,
                -0.058081239461898807,
                -0.028454598039388658,
                0.004696734249591827,
                -0.022257624194025995,
                -0.0053498451597988609,
                -0.027033274993300439,
                -0.08526221662759781,
                -0.12229562550783158,
                -0.06472186744213104,
                0.11409444361925125,
                0.36770039796829226,
                0.40980732440948489,
                0.33202067017555239,
                -0.23365376889705659,
                0.4432630240917206,
                0.49245578050613406,
                -0.23872554302215577,
                0.3597666025161743,
                0.5329320430755615,
                1.1932653188705445,
                1.3294861316680909,
                0.9011666178703308,
                0.5680707097053528,
                0.48543527722358706,
                0.3617018759250641,
                0.0864853709936142,
                -0.12368880957365036,
                -0.022589871659874917,
                0.02533833310008049,
                -0.049911145120859149,
                0.020170869305729867,
                -0.007950665429234505,
                0.021181514486670495,
                0.025868434458971025,
                -0.17222297191619874,
                -0.09659472107887268,
                0.23410575091838838,
                0.12876233458518983,
                0.6262721419334412,
                0.5490972995758057,
                0.10912594944238663,
                -0.23558786511421204,
                0.4043309688568115,
                0.5686317682266235,
                0.08149218559265137,
                0.2839735150337219,
                0.6589193344116211,
                0.2193567007780075,
                0.5979494452476502,
                0.4261215031147003,
                0.2816448509693146,
                0.35948455333709719,
                0.30853334069252016,
                0.12042662501335144,
                -0.0010108010610565544,
                -0.0642816498875618,
                -0.05647991970181465,
                0.028894299641251565,
                -0.017909273505210878,
                0.0010565909324213863,
                -0.05012677237391472,
                -0.004532603546977043,
                -0.13383181393146516,
                0.0045515974052250389,
                0.4798136353492737,
                0.4086044728755951,
                0.8206073045730591,
                0.7373429536819458,
                0.21876518428325654,
                0.6432623863220215,
                0.7212956547737122,
                0.22920361161231996,
                0.1932060867547989,
                -0.1668785959482193,
                -0.06015583872795105,
                -0.30235248804092409,
                0.37815776467323305,
                0.16120661795139314,
                -0.17292164266109467,
                0.035703908652067187,
                0.00595534173771739,
                0.03026244230568409,
                0.032241519540548328,
                -0.047930676490068439,
                0.01734422706067562,
                0.041214123368263248,
                0.03677790239453316,
                0.00288564944639802,
                -0.04501476138830185,
                -0.09201041609048844,
                -0.06125960871577263,
                0.030126672238111497,
                0.455899715423584,
                0.28500261902809145,
                0.46854010224342348,
                0.6250078678131104,
                0.6652104258537293,
                0.674744725227356,
                0.5641757845878601,
                0.37815725803375246,
                -0.16862277686595918,
                -0.8347055315971375,
                -0.5121647715568543,
                0.072201669216156,
                0.37408268451690676,
                -0.18197421729564668,
                -0.37270960211753847,
                0.012988584116101265,
                -0.09436414390802384,
                -0.113287553191185,
                -0.01085318811237812,
                -0.024773068726062776,
                0.05501196160912514,
                0.019302604719996454,
                -0.022908808663487436,
                -0.025838887318968774,
                -0.0374692864716053,
                -0.048704493790864947,
                0.03134112060070038,
                0.1404035985469818,
                0.3476595878601074,
                0.06820929050445557,
                0.5212872624397278,
                0.6743321418762207,
                0.8287550210952759,
                0.48359954357147219,
                0.4008939564228058,
                -0.3612269163131714,
                -0.4114372432231903,
                -1.2211549282073975,
                -0.33398643136024477,
                0.203220397233963,
                0.33339595794677737,
                -0.2244456708431244,
                -0.3329935371875763,
                -0.11739331483840943,
                -0.01951621286571026,
                -0.10813405364751816,
                -0.14731959998607636,
                -0.05316745862364769,
                0.04491366446018219,
                0.04445703327655792,
                0.033096738159656528,
                -0.015855060890316964,
                -0.05115977302193642,
                0.06757289916276932,
                0.1399427205324173,
                0.25985097885131838,
                0.41288530826568606,
                0.10188637673854828,
                0.13689641654491425,
                0.32315704226493838,
                0.7171202301979065,
                0.2494070827960968,
                -0.14369285106658936,
                -0.5138255953788757,
                -0.9695336222648621,
                -1.0682823657989503,
                -0.0812901109457016,
                0.44949841499328616,
                0.07289157062768936,
                -0.2070542722940445,
                -0.21857650578022004,
                -0.28801408410072329,
                -0.11608114838600159,
                -0.25197863578796389,
                -0.34528830647468569,
                -0.11510346084833145,
                -0.014398454688489437,
                0.046722784638404849,
                0.02843410335481167,
                0.01755114085972309,
                -0.02539161778986454,
                0.0493558831512928,
                0.2783704996109009,
                0.4845680594444275,
                0.27660053968429568,
                0.05997493118047714,
                -0.024642156437039377,
                0.21941247582435609,
                -0.28879716992378237,
                -0.6134858727455139,
                -0.6238222718238831,
                -0.11944765597581864,
                -0.5307245850563049,
                -0.21597075462341309,
                0.09933178126811981,
                0.3507338762283325,
                -0.029925502836704255,
                0.0973510891199112,
                -0.3322606682777405,
                -0.4570019245147705,
                -0.12711887061595918,
                -0.281236469745636,
                -0.3696487247943878,
                -0.13595899939537049,
                -0.027979834005236627,
                0.04791227728128433,
                -0.042915135622024539,
                0.05297262221574783,
                0.01724192313849926,
                -0.027300991117954255,
                0.1816302090883255,
                0.3875764012336731,
                -0.06112373620271683,
                0.2815329432487488,
                -0.0182153582572937,
                -0.2593003213405609,
                -0.4360205829143524,
                -0.8221999406814575,
                -0.4267450273036957,
                0.006848188582807779,
                0.05941799655556679,
                0.023674851283431054,
                -0.2332276552915573,
                -0.21956121921539308,
                -0.5907890796661377,
                -0.39747148752212527,
                -0.5836523771286011,
                -0.41439157724380495,
                -0.11584734916687012,
                -0.4607902467250824,
                -0.2975430190563202,
                -0.029377924278378488,
                0.024853141978383066,
                0.04101970046758652,
                -0.011572246439754963,
                -0.0384974367916584,
                0.046784110367298129,
                -0.0707053691148758,
                0.14742086827754975,
                0.2041189968585968,
                -0.13210375607013703,
                0.03549211472272873,
                -0.026349827647209169,
                -0.37784379720687868,
                0.020455311983823777,
                -0.33170831203460696,
                -0.4663465619087219,
                -0.006292973645031452,
                0.18911772966384889,
                -0.24326759576797486,
                -0.4724894165992737,
                -0.5182222723960877,
                -0.7564631700515747,
                -0.5789639353752136,
                -0.28637340664863589,
                -0.39855459332466128,
                -0.3459925353527069,
                -0.2902085483074188,
                -0.007839714176952839,
                -0.052107904106378558,
                -0.010103580541908741,
                0.03848223015666008,
                0.02776154689490795,
                0.0478164367377758,
                0.017482206225395204,
                -0.06852016597986222,
                0.06063473969697952,
                -0.07721264660358429,
                -0.21509340405464173,
                0.09216198325157166,
                0.3524690270423889,
                0.12893299758434297,
                0.30006009340286257,
                -0.20148709416389466,
                -0.5738805532455444,
                -0.4373736083507538,
                0.09175785630941391,
                0.15389975905418397,
                -0.5849164724349976,
                -0.552531898021698,
                -0.49473780393600466,
                -0.17140096426010133,
                0.18035200238227845,
                -0.18585050106048585,
                -0.1559848189353943,
                -0.32060036063194277,
                0.008401995524764061,
                -0.14307169616222382,
                -0.01256889384239912,
                -0.013509329408407212,
                0.03699091821908951,
                -0.025759929791092874,
                -0.05241303890943527,
                -0.13056141138076783,
                -0.13331356644630433,
                -0.4151814877986908,
                -0.13605475425720216,
                0.36870965361595156,
                0.4756385385990143,
                0.024628015235066415,
                -0.1433987021446228,
                -0.6096625328063965,
                -0.47517380118370058,
                -0.46188780665397646,
                -0.08260273188352585,
                0.18426647782325746,
                0.20303186774253846,
                0.09420457482337952,
                -0.09916321188211441,
                0.3035801351070404,
                0.4061949551105499,
                -0.0295056514441967,
                -0.06011631712317467,
                -0.2953364849090576,
                -0.18800616264343263,
                -0.25081926584243777,
                -0.027681950479745866,
                0.008885069750249386,
                -0.019481172785162927,
                0.008212684653699398,
                -0.034634314477443698,
                -0.08290757238864899,
                -0.20184342563152314,
                -0.34732088446617129,
                -0.021164529025554658,
                0.5901204347610474,
                0.3232974410057068,
                0.31765109300613406,
                0.38454362750053408,
                -0.07552171498537064,
                -0.28963157534599306,
                -0.15557235479354859,
                0.12495177239179611,
                -0.12580977380275727,
                -0.20499907433986665,
                0.030730649828910829,
                -0.06803060322999954,
                0.27389249205589297,
                0.13207748532295228,
                -0.22883732616901399,
                -0.17615525424480439,
                -0.3102763593196869,
                0.14814293384552003,
                -0.14424368739128114,
                -0.04782193899154663,
                -0.009822155348956585,
                -0.005573117174208164,
                -0.013484112918376923,
                0.01770475134253502,
                -0.1637496054172516,
                -0.28703761100769045,
                -0.11085867136716843,
                0.2354881763458252,
                0.6636070609092712,
                0.2479574978351593,
                0.4682444632053375,
                0.5467023849487305,
                0.3730069696903229,
                -0.30951669812202456,
                -0.30866196751594546,
                -0.22414419054985047,
                -0.6136031746864319,
                -0.46816903352737429,
                0.09389209002256394,
                0.11460099369287491,
                0.3955298662185669,
                0.30268630385398867,
                0.07611484080553055,
                -0.06472846865653992,
                -0.3350427746772766,
                -0.18278338015079499,
                -0.1518552154302597,
                -0.004244084935635328,
                -0.0320095531642437,
                0.000985871534794569,
                -0.04195528104901314,
                0.03207286074757576,
                -0.18416261672973634,
                -0.18728451430797578,
                -0.2342994511127472,
                -0.11213836073875427,
                0.0028513481374830009,
                0.07673254609107971,
                0.09491731971502304,
                -0.08762025088071823,
                -0.3630085289478302,
                -0.19989190995693208,
                0.041515205055475238,
                -0.054091840982437137,
                -0.9766833186149597,
                -0.7176006436347961,
                -0.07298530638217926,
                0.0680948942899704,
                0.5106831192970276,
                0.12930245697498322,
                -0.11629386991262436,
                -0.10904130339622498,
                -0.19702525436878205,
                -0.0330578051507473,
                -0.09571408480405808,
                0.004504570737481117,
                0.04066731035709381,
                0.01973697543144226,
                -0.04189327359199524,
                -0.02580534666776657,
                -0.03432364761829376,
                0.04715482145547867,
                -0.04786468297243118,
                -0.2804911732673645,
                -0.43838319182395937,
                -0.23512743413448335,
                -0.5989895462989807,
                -0.868125319480896,
                -1.0771161317825318,
                -0.01618163287639618,
                0.2897481322288513,
                -0.8950241804122925,
                -1.2463996410369874,
                -0.6094954609870911,
                -0.3228684663772583,
                -0.2987399399280548,
                -0.19787895679473878,
                -0.16381803154945374,
                -0.12937134504318238,
                0.219268336892128,
                0.12715470790863038,
                0.2215474247932434,
                -0.030587853863835336,
                0.020221134647727014,
                0.02890821173787117,
                0.0009193969890475273,
                0.0006384509615600109,
                -0.024853965267539026,
                -0.06627216190099716,
                0.09038103371858597,
                0.04417816177010536,
                -0.2389582395553589,
                -0.0018011607462540269,
                0.007892239838838578,
                -0.12371157854795456,
                -0.7289199233055115,
                -0.2851061522960663,
                0.28783854842185976,
                0.1989791840314865,
                -0.7431557178497315,
                -1.002763032913208,
                0.006248150486499071,
                0.5224106311798096,
                -0.030219009146094323,
                -0.3758556544780731,
                0.006619913503527641,
                0.3536687195301056,
                0.3714241087436676,
                0.32341504096984866,
                0.17605742812156678,
                -0.04497682675719261,
                -0.00950783584266901,
                -0.03749050572514534,
                -0.028620043769478799,
                0.0037746771704405548,
                -0.030725175514817239,
                0.007393617182970047,
                -0.09249221533536911,
                -0.0661635547876358,
                0.1451065093278885,
                0.3957068622112274,
                0.3871363699436188,
                0.20412038266658784,
                0.1437435746192932,
                0.5839163064956665,
                0.5238857865333557,
                0.5403642654418945,
                0.41561779379844668,
                -0.37473034858703616,
                0.5210023522377014,
                0.4891877770423889,
                0.38367876410484316,
                -0.0146082304418087,
                0.3055514395236969,
                0.3761717975139618,
                0.278098464012146,
                0.44950976967811587,
                0.25157803297042849,
                0.0074356188997626308,
                0.026617391034960748,
                0.029867423698306085,
                -0.03122365102171898,
                0.03005470521748066,
                -0.030789729207754136,
                -0.06781250238418579,
                -0.05449814349412918,
                -0.2572581470012665,
                -0.07596404105424881,
                0.3898893892765045,
                0.3424338698387146,
                0.35681870579719546,
                0.14026249945163728,
                -0.02518068626523018,
                0.5691390037536621,
                0.8536501526832581,
                0.6108142137527466,
                0.5238844156265259,
                0.9192896485328674,
                0.8314566016197205,
                0.8528744578361511,
                0.3803601562976837,
                0.18991270661354066,
                0.14513196051120759,
                0.176244854927063,
                0.2256537675857544,
                0.1698492169380188,
                0.03586791083216667,
                0.0067025721073150639,
                0.02813834138214588,
                0.03469167649745941,
                -0.03121274895966053,
                0.04019354656338692,
                -0.04742754250764847,
                -0.0072419047355651859,
                -0.0004066872352268547,
                -0.02718069590628147,
                0.06080707162618637,
                -0.0006864872411824763,
                -0.06024550274014473,
                -0.20411400496959687,
                -0.17894437909126283,
                0.05018037185072899,
                -0.06745000183582306,
                -0.3527345359325409,
                0.307123064994812,
                0.6129564642906189,
                0.320550799369812,
                0.3303956091403961,
                0.04577924311161041,
                0.09877688437700272,
                -0.09893622994422913,
                0.02136240154504776,
                0.06845320016145706,
                -0.032913342118263248,
                0.03933747112751007,
                -0.018219083547592164,
                -0.014264194294810295,
                -0.02351093478500843,
                0.046560291200876239,
                0.007852030918002129,
                -0.04627218097448349,
                0.0058919149450957779,
                0.017960209399461747,
                0.035022102296352389,
                0.036675795912742618,
                0.04450702667236328,
                0.025992365553975107,
                0.1277722418308258,
                0.07848431915044785,
                0.1975145936012268,
                0.051941949874162677,
                0.0887501910328865,
                0.21905489265918733,
                -0.07196521013975144,
                0.09904937446117401,
                0.19162631034851075,
                0.1421722173690796,
                0.1807439774274826,
                -0.0548027940094471,
                -0.052453093230724338,
                -0.08961134403944016,
                -0.03578563407063484,
                0.01610121876001358,
                -0.024653641507029535,
                0.04007876664400101,
                0.031143339350819589,
                -0.015466976910829544,
                -0.02907237783074379,
                0.023873168975114824,
                0.008345052599906922,
                0.09751555323600769,
                0.047229133546352389,
                0.05835232511162758,
                0.04711597040295601,
                0.025092100724577905,
                0.07630348205566406,
                0.03139536827802658,
                0.10829027742147446,
                0.17004334926605225,
                0.30779266357421877,
                0.1699429601430893,
                0.11100804060697556,
                0.10857884585857392,
                0.10282246768474579,
                0.07490555942058563,
                0.16084180772304536,
                0.11284900456666947,
                0.019370820373296739,
                0.04633261635899544,
                0.030077068135142328,
                0.04808301106095314,
                0.0033198692835867407,
                -0.043144118040800098,
                -0.021359248086810113,
                -0.023627325892448427,
                0.011610623449087143,
                0.024682512506842614,
                -0.01637074165046215,
                -0.014003544114530087,
                -0.0012498329160735012,
                -0.032365456223487857,
                -0.03796042129397392,
                0.019601693376898767,
                0.05329732224345207,
                -0.013620173558592797,
                0.04477478563785553,
                -0.03289882093667984,
                0.013052519410848618,
                -0.02108020707964897,
                -0.007348306477069855,
                0.07146552950143814,
                0.013271264731884003,
                -0.033712659031152728,
                -0.010822552256286145,
                -0.01936003565788269,
                -0.027165265753865243,
                -0.0018151276744902135,
                0.0422167144715786,
                0.04443748667836189,
                0.04188688099384308,
                -0.03458944335579872,
                0.03619232773780823,
                -0.02084873430430889,
                0.044902920722961429,
                0.003624636447057128,
                -0.005530609283596277,
                -0.012878911569714547,
                0.0028516522143036129,
                0.04698185622692108,
                -0.005104506853967905,
                -0.028244098648428918,
                0.03174450248479843,
                0.0010179111268371344,
                -0.025707855820655824,
                0.019974231719970704,
                -0.02414466068148613,
                -0.011278435587882996,
                -0.04226461425423622,
                0.0010899474145844579,
                0.004896290600299835,
                0.03326326608657837,
                -0.03282381594181061,
                -0.00687422277405858,
                0.01717394031584263,
                0.03192530944943428,
                0.0006261458620429039,
                -0.008052060380578041,
                0.02006598189473152,
                0.04749373719096184,
                -0.04670250415802002,
                -0.036552853882312778,
                0.032465800642967227,
                -0.010794747620821,
                -0.0059494622983038429,
                -0.016975007951259614,
                -0.02009972184896469,
                0.02929196134209633,
                0.016958661377429963,
                -0.024979958310723306,
                -0.03149212524294853,
                -0.024525895714759828,
                -0.013845167122781277,
                -0.011988544836640358,
                0.008209087885916233,
                -0.06140579655766487,
                -0.045515019446611407,
                0.03955607861280441,
                0.03562896326184273,
                0.014782090671360493,
                -0.05012456327676773,
                0.019367096945643426,
                -0.02750246971845627,
                -0.01017092727124691,
                -0.010458803735673428,
                -0.04137638211250305,
                0.04823436960577965,
                -0.006933447904884815,
                0.01197732426226139,
                -0.037022389471530917,
                -0.04700154811143875,
                -0.048563845455646518,
                0.01643773727118969,
                0.005247524008154869,
                0.0398954339325428,
                -0.031967803835868838,
                -0.025888336822390558,
                -0.024208003655076028,
                -0.1156584769487381,
                -0.00900175515562296,
                -0.04844316467642784,
                -0.007859517820179463,
                -0.03511379659175873,
                -0.0335981585085392,
                -0.0078048440627753738,
                -0.046691834926605228,
                -0.03319337218999863,
                0.0017725714715197683,
                0.0267066340893507,
                0.012801594100892544,
                -0.0022453882265836,
                -0.0037427821662276985,
                0.003042132593691349,
                0.0494956374168396,
                0.04220578074455261,
                -0.031055962666869165,
                0.023019051179289819,
                -0.008660966530442238,
                0.04965338483452797,
                -0.019579565152525903,
                -0.03573577105998993,
                0.04352453351020813,
                -0.03722275793552399,
                0.0029062277171760799,
                -0.05246741324663162,
                0.012096608988940716,
                -0.008217706345021725,
                -0.10644403845071793,
                -0.10308755934238434,
                -0.23516926169395448,
                -0.20936033129692079,
                -0.27967482805252077,
                -0.2564173638820648,
                -0.21076197922229768,
                -0.2786237895488739,
                -0.27632060647010805,
                -0.2378906011581421,
                -0.09061004221439362,
                -0.016026487573981286,
                -0.05510290712118149,
                0.018175266683101655,
                -0.017427003011107446,
                0.010259290225803852,
                0.04764989763498306,
                -0.003680619178339839,
                -0.001193671254441142,
                -0.0007131235324777663,
                0.014417430385947228,
                0.028600992634892465,
                0.08171262592077255,
                0.060545649379491809,
                0.08652600646018982,
                0.053880706429481509,
                0.03749106824398041,
                0.027520470321178438,
                -0.11968551576137543,
                -0.06758655607700348,
                -0.20578309893608094,
                -0.42843011021614077,
                -0.6686331033706665,
                -0.5925249457359314,
                -0.5701141953468323,
                -0.5728885531425476,
                -0.4602094888687134,
                -0.35633978247642519,
                -0.18244010210037232,
                -0.05796271562576294,
                -0.010135259479284287,
                0.035794030874967578,
                0.018860625103116037,
                0.0483202189207077,
                -0.0445721261203289,
                0.022416774183511735,
                0.0254964716732502,
                -0.0020081903785467149,
                -0.07208225131034851,
                0.024700341746211053,
                0.07625264674425125,
                0.02558610774576664,
                -0.04087330028414726,
                0.42318955063819888,
                0.5866678357124329,
                0.32950353622436526,
                -0.017646968364715577,
                -0.03447039797902107,
                -0.37803274393081667,
                -0.7890920639038086,
                -0.7371810674667358,
                -0.5767198801040649,
                -0.5099869966506958,
                -0.470620721578598,
                -0.3110010027885437,
                -0.4977506101131439,
                -0.34166377782821658,
                -0.2237733006477356,
                -0.03855269029736519,
                -0.05840718746185303,
                -0.04638272151350975,
                0.041399404406547549,
                0.0023966259323060514,
                0.034081120043992999,
                0.0453033447265625,
                -0.04922487586736679,
                0.005099219270050526,
                0.06695632636547089,
                0.12118686735630036,
                0.05078623443841934,
                0.2769033908843994,
                0.4185049533843994,
                0.6598682403564453,
                -0.11309190094470978,
                -0.3400808274745941,
                -0.32880011200904848,
                -0.48325061798095705,
                -0.09712551534175873,
                -0.2951975464820862,
                0.02780252695083618,
                -0.027089346200227739,
                -0.10132977366447449,
                0.04292163997888565,
                -0.1082422062754631,
                -0.2049374133348465,
                -0.40228942036628725,
                -0.16073569655418397,
                -0.09075015038251877,
                0.0055162375792860989,
                0.027850614860653878,
                0.04752601310610771,
                0.044272489845752719,
                0.025242583826184274,
                0.034642837941646579,
                0.00014171494694892317,
                0.06275748461484909,
                0.4200091063976288,
                0.8189154267311096,
                0.666631281375885,
                0.08953066170215607,
                0.009459877386689186,
                -0.4317140579223633,
                -0.4250231385231018,
                -0.19773364067077638,
                -0.05703717842698097,
                0.14362549781799317,
                -0.30853763222694399,
                -0.442209929227829,
                0.010085328482091427,
                -0.4548361897468567,
                -0.22558876872062684,
                0.086301289498806,
                0.2536533772945404,
                0.003995232749730349,
                -0.259204626083374,
                -0.2660435736179352,
                -0.0822204053401947,
                0.01707504317164421,
                -0.01522318460047245,
                0.03245497867465019,
                -0.023753469809889795,
                -0.00017173255037050694,
                0.11116540431976319,
                0.2942988872528076,
                0.6242700815200806,
                0.8513482809066773,
                0.5863080024719238,
                0.31452545523643496,
                0.05084071308374405,
                0.06376181542873383,
                -0.013440804556012154,
                -0.32888808846473696,
                -0.3778267204761505,
                -0.31194189190864565,
                -0.22503739595413209,
                -0.39052486419677737,
                -0.06229007616639137,
                0.21988850831985475,
                -0.594356894493103,
                0.23102502524852754,
                0.432708740234375,
                0.16543421149253846,
                -0.07435370236635208,
                -0.27201277017593386,
                -0.19078552722930909,
                0.01691337116062641,
                -0.002236718777567148,
                0.02516063116490841,
                0.032424069941043857,
                0.11718179285526276,
                0.09528524428606034,
                0.2876977026462555,
                0.5552327036857605,
                0.4740408658981323,
                0.22204186022281648,
                -0.027502764016389848,
                -0.2371845245361328,
                -0.09490689635276795,
                0.00956727284938097,
                -0.17452594637870789,
                -0.3971543610095978,
                -0.275969535112381,
                -0.5406865477561951,
                -0.805666983127594,
                0.03088284097611904,
                0.4033392369747162,
                -0.17293180525302888,
                -0.07214811444282532,
                0.4075140953063965,
                0.08922508358955383,
                -0.1564405858516693,
                -0.24104608595371247,
                -0.11555051058530808,
                -0.0035157196689397098,
                0.01748342253267765,
                -0.038104597479104999,
                0.03663503751158714,
                0.14009886980056764,
                0.013327562250196934,
                0.10166294872760773,
                0.2517344057559967,
                0.24856318533420564,
                0.24324682354927064,
                -0.2510792016983032,
                0.13550055027008058,
                -0.17814213037490846,
                0.085237517952919,
                -0.682190477848053,
                -0.6698012351989746,
                -0.3551744222640991,
                -0.7410109639167786,
                -0.3459678292274475,
                -0.021994788199663163,
                0.21729937195777894,
                -0.06360548734664917,
                -0.259398877620697,
                -0.0672178566455841,
                -0.15308836102485658,
                -0.3419995605945587,
                -0.35510823130607607,
                -0.13711996376514436,
                -0.042075589299201968,
                -0.02013610489666462,
                0.04506552219390869,
                -0.003551705041900277,
                0.10582797229290009,
                -0.015588381327688694,
                0.018919596448540689,
                0.315170019865036,
                0.466860294342041,
                0.23843273520469666,
                -0.1767488420009613,
                -0.27636829018592837,
                -0.20206624269485475,
                -0.8344296813011169,
                -0.7231014966964722,
                -0.5218773484230042,
                -0.3280009329319,
                -0.7210592031478882,
                -0.22146759927272798,
                0.4101545512676239,
                0.2100382149219513,
                0.10416679084300995,
                0.21168497204780579,
                -0.03188273683190346,
                0.1704338788986206,
                -0.3145577311515808,
                -0.5182140469551086,
                -0.05082189664244652,
                0.0071016764268279079,
                0.007734937593340874,
                0.027094004675745965,
                -0.02748391404747963,
                0.04783967509865761,
                -0.04566727951169014,
                0.09695304930210114,
                0.18353818356990815,
                0.1003970354795456,
                -0.07428458333015442,
                -0.1477775275707245,
                -0.42162495851516726,
                -0.5014244914054871,
                -0.6189315319061279,
                -0.6049108505249023,
                -0.2781345248222351,
                -0.6263864040374756,
                -0.5901526808738709,
                0.18763180077075959,
                0.4935133457183838,
                0.4880727529525757,
                0.10825792700052262,
                0.04908715561032295,
                0.1291348785161972,
                0.47791334986686709,
                -0.04844638705253601,
                -0.14074242115020753,
                0.045690566301345828,
                0.02124093659222126,
                -0.030316263437271119,
                -0.042603086680173877,
                -0.03084084391593933,
                -0.002937512705102563,
                0.0020890161395072939,
                0.09712068736553192,
                0.04028332233428955,
                0.030026862397789956,
                0.16252748668193818,
                0.16834773123264314,
                0.32078325748443606,
                0.29930609464645388,
                -0.02688412554562092,
                -0.27175968885421755,
                -0.39653709530830386,
                -0.7772871255874634,
                -0.923107922077179,
                -0.12200532853603363,
                0.5994755029678345,
                0.26123255491256716,
                -0.02711888961493969,
                0.06280845403671265,
                0.5547678470611572,
                0.5468717813491821,
                0.16429367661476136,
                -0.11389127373695374,
                -0.027239499613642694,
                0.006001244764775038,
                -0.03072534129023552,
                -0.014926289208233357,
                0.030204826965928079,
                0.013314493000507355,
                0.054442986845970157,
                0.063875712454319,
                0.015692492946982385,
                -0.02244754508137703,
                0.08758967369794846,
                0.30668604373931887,
                0.07096192985773087,
                0.5779849886894226,
                0.21711234748363496,
                0.03430916368961334,
                -0.06937218457460404,
                -0.48792269825935366,
                -0.5705766081809998,
                -0.06815590709447861,
                0.42727941274642947,
                0.3832021951675415,
                0.7646374106407166,
                0.304063618183136,
                0.05931532010436058,
                0.2937012314796448,
                0.09574928134679795,
                -0.34871000051498415,
                -0.1058451384305954,
                0.02966006100177765,
                -0.03159846365451813,
                -0.025547470897436143,
                0.029010500758886339,
                -0.0007482001092284918,
                0.053989093750715259,
                0.014393038116395474,
                -0.10673943161964417,
                -0.06448288261890412,
                -0.051334742456674579,
                -0.06642456352710724,
                0.02662808448076248,
                0.6644327640533447,
                0.12470797449350357,
                -0.1610991209745407,
                -0.16145917773246766,
                -0.4355817139148712,
                -0.4455859065055847,
                0.426379919052124,
                0.7334316968917847,
                0.7964146137237549,
                0.7265273332595825,
                0.42852863669395449,
                0.1703856885433197,
                0.29899486899375918,
                -0.18116292357444764,
                -0.28019484877586367,
                -0.0367358922958374,
                0.037845779210329059,
                0.010466442443430424,
                0.0360356941819191,
                0.009262223728001118,
                -0.00769105413928628,
                -0.03405171260237694,
                0.1401781439781189,
                -0.04433751106262207,
                0.03165961429476738,
                -0.17498727142810822,
                -0.28373852372169497,
                0.13433218002319337,
                0.4103206694126129,
                0.244279146194458,
                -0.17280852794647218,
                -0.5571707487106323,
                -0.6937633752822876,
                0.2910307049751282,
                0.3701445162296295,
                0.8447675704956055,
                0.7621673941612244,
                0.43244656920433047,
                0.38143807649612429,
                -0.07535313069820404,
                0.005118643864989281,
                -0.09648305177688599,
                0.023088565096259118,
                0.00736586656421423,
                0.015061547979712487,
                0.002931661903858185,
                -0.03741424158215523,
                -0.025094756856560708,
                -0.055864959955215457,
                -0.07721181213855744,
                -0.010249517858028412,
                -0.1860945224761963,
                -0.19896969199180604,
                -0.06872547417879105,
                -0.3124024271965027,
                -0.042400144040584567,
                0.3119015693664551,
                -0.2532132863998413,
                -0.8421524167060852,
                -1.0942304134368897,
                -0.3927932679653168,
                0.7447919845581055,
                0.5120919346809387,
                0.7719471454620361,
                0.7003251314163208,
                0.15218651294708253,
                0.03201321139931679,
                -0.3242371082305908,
                -0.009778982028365136,
                -0.2032002955675125,
                -0.10217633098363877,
                0.017658686265349389,
                -0.01779293082654476,
                -0.013007001020014286,
                -0.015781911090016366,
                -0.024213531985878946,
                -0.0062051503919065,
                -0.11637979000806809,
                0.06414011865854263,
                -0.16645623743534089,
                -0.15531957149505616,
                0.1361575871706009,
                0.10828965902328491,
                -0.2113846391439438,
                -0.523371160030365,
                -0.7026293277740479,
                -1.1407692432403565,
                -0.5352724194526672,
                0.3902411460876465,
                0.8644402027130127,
                0.7416331768035889,
                0.7898126840591431,
                0.16105656325817109,
                -0.15285572409629823,
                -0.25554725527763369,
                -0.3658868074417114,
                -0.3216947019100189,
                -0.5604021549224854,
                -0.2548953592777252,
                0.04483247175812721,
                0.02338733710348606,
                0.04567701742053032,
                0.0028331775683909656,
                0.0005431112367659807,
                -0.0013243850553408266,
                -0.15177857875823975,
                -0.08775635808706284,
                -0.11876629292964935,
                -0.03497908264398575,
                0.062495265156030658,
                0.31560924649238589,
                -0.293337881565094,
                -0.8641421794891357,
                -0.8318274021148682,
                -0.7207000255584717,
                -0.21256037056446076,
                0.5292354822158814,
                1.0028482675552369,
                1.018351674079895,
                0.43491503596305849,
                -0.010590237565338612,
                -0.0918298065662384,
                -0.5514228343963623,
                -0.6222130060195923,
                -0.4330485165119171,
                -0.3335903286933899,
                -0.15394344925880433,
                -0.06407574564218521,
                -0.0026752266567200424,
                0.04424997419118881,
                0.0038507264107465746,
                -0.0032290522940456869,
                -0.03409711644053459,
                -0.0916830450296402,
                -0.24335582554340363,
                -0.2733611762523651,
                -0.24646872282028199,
                -0.19483274221420289,
                -0.18665055930614472,
                -0.6925439834594727,
                -0.8978589773178101,
                -0.7252327799797058,
                -0.3570772409439087,
                -0.036302514374256137,
                0.4751795828342438,
                0.11607503145933151,
                0.4002620577812195,
                0.27783161401748659,
                0.2049785852432251,
                -0.4490971565246582,
                -0.7683166265487671,
                -0.5287622809410095,
                -0.36956286430358889,
                -0.2348351627588272,
                0.06003464385867119,
                -0.07914628088474274,
                -0.04994507133960724,
                -0.0031431647948920728,
                0.028446456417441369,
                0.006714304909110069,
                -0.04379371553659439,
                -0.08939824253320694,
                -0.33489492535591128,
                -0.3105320930480957,
                -0.3148575723171234,
                -0.4464852213859558,
                -0.3188105821609497,
                -0.6581884026527405,
                -0.7356435060501099,
                -0.6313700675964356,
                -0.06978277117013931,
                0.3026062250137329,
                0.5524955987930298,
                -0.4474770128726959,
                0.5618160367012024,
                0.24971935153007508,
                0.017349278554320337,
                -0.18830303847789765,
                -0.4187711179256439,
                -0.2782624065876007,
                -0.2632007598876953,
                -0.04936080798506737,
                -0.021842334419488908,
                -0.1172681599855423,
                0.020778771489858629,
                0.03762707859277725,
                0.04857305809855461,
                -0.040127698332071307,
                0.03106352873146534,
                -0.10423199832439423,
                -0.1382104605436325,
                -0.2935693860054016,
                -0.36515820026397707,
                -0.44622737169265749,
                -0.44754886627197268,
                -0.3343523144721985,
                -0.45379260182380679,
                -0.4554709792137146,
                0.09036678820848465,
                0.36796388030052187,
                0.14983384311199189,
                -0.035413362085819247,
                0.7626681923866272,
                0.16457058489322663,
                -0.06755685061216355,
                -0.12374210357666016,
                -0.24256464838981629,
                -0.31446924805641177,
                -0.29471561312675478,
                -0.09394758194684982,
                0.016226399689912797,
                -0.05639765411615372,
                0.012100526131689549,
                -0.03459722921252251,
                0.02731235697865486,
                -0.02271919511258602,
                -0.015947779640555383,
                -0.060393016785383227,
                -0.03007533587515354,
                -0.135686993598938,
                -0.20123863220214845,
                -0.33963292837142947,
                -0.42576101422309878,
                -0.40601491928100588,
                -0.21756611764431,
                -0.44844287633895876,
                0.15292377769947053,
                -0.4510877728462219,
                0.3074566721916199,
                0.12460105121135712,
                0.026094950735569,
                0.17978355288505555,
                0.06314903497695923,
                0.10041889548301697,
                0.02080356329679489,
                0.02214624360203743,
                -0.13761736452579499,
                -0.03573354333639145,
                0.05143088102340698,
                0.06963597983121872,
                -0.038228582590818408,
                0.006432340946048498,
                0.04411044344305992,
                -0.004663332365453243,
                0.006301199086010456,
                -0.0046163941733539108,
                0.05355776101350784,
                -0.03219522908329964,
                -0.15477372705936433,
                -0.2919565737247467,
                -0.23634827136993409,
                -0.4672958552837372,
                -0.268902450799942,
                -0.07088188081979752,
                -0.32245343923568728,
                -0.2755662500858307,
                0.3149440288543701,
                -0.4101763963699341,
                -0.19189806282520295,
                0.2521342933177948,
                0.1936953365802765,
                0.3612540662288666,
                0.38726580142974856,
                0.1839742660522461,
                0.0002596905396785587,
                -0.03854571655392647,
                -0.007250962778925896,
                -0.03811238706111908,
                0.0164511539041996,
                -0.0011825788533315063,
                -0.028848743066191675,
                -0.045856133103370669,
                0.03882996737957001,
                0.002482367679476738,
                0.02023296430706978,
                -0.044575367122888568,
                -0.17928114533424378,
                -0.34604412317276,
                -0.21926189959049226,
                -0.01154695637524128,
                -0.09582065045833588,
                -0.13431845605373383,
                0.13837836682796479,
                0.07856539636850357,
                0.6754254698753357,
                0.08419828116893769,
                -0.12545467913150788,
                0.13140958547592164,
                0.1573813408613205,
                -0.11920750886201859,
                -0.06514941900968552,
                -0.06642238795757294,
                -0.19033218920230866,
                -0.15175580978393556,
                -0.01701285131275654,
                0.02441122941672802,
                0.031160496175289155,
                -0.012015574611723423,
                -0.03216947242617607,
                0.044729698449373248,
                0.034903716295957568,
                0.017122162505984308,
                0.003121682908385992,
                -0.04264599829912186,
                0.04678190127015114,
                0.07724470645189285,
                0.0972241684794426,
                0.28168249130249026,
                0.09467849135398865,
                -0.17832396924495698,
                -0.17378710210323335,
                0.17732509970664979,
                0.11137332767248154,
                -0.0685131698846817,
                -0.06731970608234406,
                -0.021611467003822328,
                0.28861603140830996,
                0.13768722116947175,
                0.05638706311583519,
                -0.0006166074308566749,
                0.05823371559381485,
                0.04173879325389862,
                0.032680924981832507,
                0.0031377284321933986,
                -0.04816813766956329,
                -0.021541379392147065,
                0.04564327746629715,
                0.02404453419148922,
                0.016037754714488984,
                0.03406038135290146,
                0.010131735354661942,
                -0.0030321714002639057,
                -0.041810739785432819,
                -0.028170987963676454,
                -0.011113375425338745,
                -0.023678844794631006,
                0.019423462450504304,
                -0.04344486445188522,
                0.00595723045989871,
                0.061818890273571017,
                -0.0011872900649905205,
                0.013517686165869236,
                0.029080642387270929,
                0.019767632707953454,
                0.08616451919078827,
                0.10882141441106796,
                0.07486965507268906,
                0.05921850726008415,
                0.07292540371417999,
                0.007687001023441553,
                0.04083838313817978,
                0.010266813449561596,
                0.017519686371088029,
                -0.04742807522416115,
                -0.009101060219109059,
                -0.04812343791127205,
                0.03571593016386032,
                0.049463264644145969,
                -0.02099134959280491,
                0.013056633993983269,
                0.02418842911720276,
                -0.012615708634257317,
                0.030549194663763047,
                -0.019911179319024087,
                -0.02218828722834587,
                -0.045489273965358737,
                0.0009429693454876542,
                -0.04921967536211014,
                -0.020394209772348405,
                0.00458312314003706,
                -0.020539473742246629,
                0.008992237970232964,
                0.008206579834222794,
                0.004635166376829147,
                -0.03556010499596596,
                0.04594217240810394,
                -0.02861718274652958,
                -0.007506914436817169,
                0.040796782821416858,
                -0.03771153464913368,
                -0.004203170072287321,
                -0.01900472119450569,
                -0.03784317150712013,
                -0.0321652851998806,
                0.04322199895977974,
                0.04980190098285675,
                0.028997233137488366,
                -0.04633694514632225,
                0.017772383987903596,
                -0.03759296238422394,
                -0.03517129644751549,
                -0.037351690232753757,
                0.04523592069745064,
                0.05330755189061165,
                0.009734784252941609,
                0.024249576032161714,
                0.029420819133520128,
                -0.025381773710250856,
                -0.009769626893103123,
                0.019746234640479089,
                -0.013558673672378064,
                0.014671619981527329,
                -0.04117021709680557,
                -0.054679058492183688,
                -0.03224329277873039,
                -0.018168628215789796,
                -0.04793976619839668,
                -0.03711548075079918,
                0.03813203051686287,
                -0.005043234210461378,
                0.03049374371767044,
                -0.006777156610041857,
                -0.04133355990052223,
                -0.03327655419707298,
                -0.03282083570957184,
                -0.006823933217674494,
                -0.025628918781876565,
                0.012498333118855954,
                0.009800724685192109,
                0.030661191791296006,
                -0.009298407472670079,
                0.01650538481771946,
                0.06487108767032623,
                0.033918511122465137,
                0.06514501571655274,
                -0.13632015883922578,
                -0.031604818999767306,
                -0.0414990596473217,
                -0.160115048289299,
                -0.209885835647583,
                -0.08453888446092606,
                0.014852154068648816,
                -0.053760070353746417,
                -0.02901603654026985,
                0.028653841465711595,
                0.017874639481306077,
                0.04595232382416725,
                -0.045147787779569629,
                0.04909219965338707,
                0.011375854723155499,
                0.047663331031799319,
                0.01541378814727068,
                -0.05263568460941315,
                -0.067513607442379,
                -0.05104181170463562,
                -0.026845669373869897,
                -0.06451515853404999,
                0.1396121382713318,
                0.26767200231552126,
                0.4584208130836487,
                0.16204041242599488,
                0.27889204025268557,
                0.4957324266433716,
                -0.09006137400865555,
                -0.21116933226585389,
                -0.30969616770744326,
                -0.5076573491096497,
                -0.3884449601173401,
                -0.35319966077804568,
                -0.2102731615304947,
                0.0031625472474843265,
                0.002273780992254615,
                0.09843891859054566,
                -0.0755695328116417,
                -0.037462979555130008,
                0.04066644236445427,
                -0.03820796683430672,
                0.025701794773340226,
                -0.007442072033882141,
                0.0005643814220093191,
                -0.026357293128967286,
                -0.08665119856595993,
                -0.009664102457463742,
                0.0029923724941909315,
                0.0631740614771843,
                0.3219841420650482,
                0.30395734310150149,
                0.3780032992362976,
                0.3697400689125061,
                -0.15533912181854249,
                -0.14351460337638856,
                0.1008554995059967,
                -0.07531902939081192,
                0.06746639311313629,
                -0.034806981682777408,
                -0.1985909342765808,
                0.0147908516228199,
                -0.03310101106762886,
                0.021692724898457528,
                -0.05591396242380142,
                -0.1076660305261612,
                0.03282539173960686,
                -0.013977933675050736,
                0.041550394147634509,
                0.042924974113702777,
                0.004198942333459854,
                0.01588544435799122,
                0.01614820957183838,
                0.013725939206779004,
                -0.0073915282264351849,
                0.04632874205708504,
                0.1762286275625229,
                0.5243895053863525,
                0.5702493786811829,
                0.7222533226013184,
                0.6532754302024841,
                0.8134685754776001,
                0.46309974789619448,
                0.38475555181503298,
                0.077951580286026,
                -0.06563835591077805,
                -0.06363897025585175,
                -0.028544047847390176,
                -0.1438838541507721,
                -0.4956159293651581,
                0.10352741181850434,
                0.14578671753406526,
                -0.016352789476513864,
                -0.03206625208258629,
                0.040555428713560107,
                0.01478135772049427,
                0.0011122595751658083,
                0.025049500167369844,
                0.010311569087207318,
                -0.00880588497966528,
                0.032853659242391589,
                -0.02990935929119587,
                0.04215848445892334,
                0.1671169102191925,
                0.31958964467048647,
                0.5178113579750061,
                1.0243102312088013,
                1.0732611417770386,
                0.5037222504615784,
                -0.018578512594103814,
                0.12241893261671066,
                -0.14895732700824738,
                -0.06854663789272309,
                0.13122491538524629,
                -0.1209891065955162,
                0.2586331069469452,
                -0.05123766139149666,
                -0.6705635786056519,
                0.193248450756073,
                0.5417526960372925,
                0.15455970168113709,
                -0.1196678876876831,
                0.024961793795228006,
                -0.0914025753736496,
                -0.03614528104662895,
                0.036740854382514957,
                0.050743039697408679,
                0.030635176226496698,
                0.045630328357219699,
                -0.06802361458539963,
                0.05290777608752251,
                0.2965473234653473,
                0.42653945088386538,
                0.6703070402145386,
                1.0414717197418213,
                0.7941372990608215,
                -0.00248318281956017,
                -0.5072502493858337,
                0.09389732033014298,
                -0.8754459619522095,
                -0.572320282459259,
                -0.15370914340019227,
                0.10860732197761536,
                0.5050420165061951,
                0.3040667474269867,
                -0.1942538470029831,
                -0.02419707551598549,
                0.35744816064834597,
                -0.056691572070121768,
                -0.20607754588127137,
                -0.20355215668678285,
                -0.11586462706327439,
                0.003157242201268673,
                -0.018488550558686258,
                0.00868762843310833,
                0.004644579254090786,
                0.00013451122504193336,
                -0.024207795038819314,
                0.019728779792785646,
                0.22571617364883424,
                0.2895236909389496,
                0.5822082757949829,
                0.6103481650352478,
                0.31269127130508425,
                -0.03439856320619583,
                0.4673600494861603,
                0.5292237997055054,
                0.08264501392841339,
                0.4591275453567505,
                0.94425368309021,
                0.62554532289505,
                0.5376397967338562,
                0.16307246685028077,
                -0.10123688727617264,
                -0.445699542760849,
                0.05969151854515076,
                -0.38566067814826968,
                -0.6911363005638123,
                -0.47107622027397158,
                -0.08865803480148316,
                0.015089549124240876,
                0.00977516919374466,
                -0.02182060293853283,
                -0.02899218164384365,
                -0.024138201028108598,
                -0.11407836526632309,
                -0.04758351296186447,
                -0.05806891247630119,
                -0.02312312088906765,
                0.26925116777420046,
                0.5172221064567566,
                0.42434802651405337,
                0.3795677721500397,
                0.881051242351532,
                -0.0066777849569916729,
                0.061072658747434619,
                0.280531108379364,
                0.1605360507965088,
                0.20059803128242494,
                0.3159977197647095,
                0.19327379763126374,
                0.2598622739315033,
                -0.02086574397981167,
                -0.18490464985370637,
                -0.386535108089447,
                -0.6503040790557861,
                -0.3307957351207733,
                -0.05014071613550186,
                0.007038287818431854,
                0.05016114562749863,
                0.015530322678387165,
                0.03580847382545471,
                -0.028143776580691339,
                -0.1302616000175476,
                -0.0011380810756236315,
                -0.028502264991402627,
                0.18493986129760743,
                0.27586308121681216,
                0.6723769307136536,
                0.756872832775116,
                0.7571187615394592,
                -0.4127791225910187,
                -1.2804677486419678,
                -0.6931416988372803,
                -0.35046741366386416,
                -0.3563460409641266,
                -0.21076928079128266,
                -0.19925376772880555,
                -0.009952432475984097,
                0.20742098987102509,
                0.06516125798225403,
                0.022440917789936067,
                -0.44687291979789736,
                -0.6420109272003174,
                -0.45310795307159426,
                -0.0015082312747836114,
                -0.0165985357016325,
                0.005376577842980623,
                -0.04415762796998024,
                -0.028369059786200525,
                0.004942534491419792,
                -0.15910984575748444,
                0.019747082144021989,
                0.23789621889591218,
                0.303899884223938,
                0.49746283888816836,
                0.7774665355682373,
                1.1348252296447755,
                1.2023122310638428,
                -0.13032767176628114,
                -1.0743993520736695,
                -0.764958381652832,
                -0.17725089192390443,
                -0.28069737553596499,
                -0.549141526222229,
                -0.8815340995788574,
                -0.08248180150985718,
                0.12327416986227036,
                0.0023149047046899797,
                -0.09442833065986633,
                -0.4103584587574005,
                -0.42871934175491335,
                -0.28536200523376467,
                -0.08662690967321396,
                -0.03030250407755375,
                0.04845666140317917,
                -0.030838774517178537,
                -0.039154089987277988,
                -0.011628559790551663,
                -0.12779225409030915,
                0.02847135066986084,
                0.17614077031612397,
                0.04992770403623581,
                0.3321458399295807,
                0.18345464766025544,
                0.6841647028923035,
                0.9445704817771912,
                0.3451266288757324,
                -0.738803505897522,
                -1.259521484375,
                0.409526526927948,
                -0.08106276392936707,
                -0.5191705226898193,
                -0.2644830048084259,
                -0.12095019221305847,
                0.10297980904579163,
                -0.039818521589040759,
                0.14272141456604005,
                -0.04392283782362938,
                0.06219444051384926,
                -0.04778387397527695,
                0.031945664435625079,
                -0.0008182684541679919,
                -0.005124317016452551,
                -0.012040751986205578,
                0.005712102632969618,
                0.01105003897100687,
                -0.05955963954329491,
                -0.0603921078145504,
                -0.018621794879436494,
                0.17899176478385926,
                0.30774953961372378,
                0.19606538116931916,
                0.775814414024353,
                0.9698633551597595,
                0.26801031827926638,
                -0.07830356061458588,
                -0.7813049554824829,
                0.33190014958381655,
                0.12460280954837799,
                0.13921774923801423,
                0.4405713975429535,
                0.37912726402282717,
                0.21194246411323548,
                0.3420923054218292,
                0.39144161343574526,
                0.18811912834644319,
                0.23340196907520295,
                0.030094508081674577,
                0.06169375032186508,
                0.005178331397473812,
                -0.010950516909360886,
                -0.013114146888256073,
                -0.04350466653704643,
                0.023706529289484025,
                -0.025415638461709024,
                0.09464097023010254,
                -0.039076995104551318,
                0.27931541204452517,
                0.3674693703651428,
                0.39219486713409426,
                0.9355829358100891,
                0.8157622814178467,
                0.49186453223228457,
                0.0025071962736546995,
                -0.46517252922058108,
                0.18323028087615968,
                -0.11521632224321366,
                0.7612007260322571,
                0.5654804110527039,
                0.2811260521411896,
                -0.006026427261531353,
                0.3024863302707672,
                0.3387984335422516,
                0.43950915336608889,
                0.30757224559783938,
                0.001010859152302146,
                -0.006738024298101664,
                0.006718744523823261,
                0.0010505656246095896,
                -0.04031295329332352,
                -0.023103147745132448,
                -0.026168745011091234,
                -0.11380045115947724,
                -0.07396291196346283,
                -0.3351862132549286,
                -0.22930146753787995,
                0.2831262946128845,
                0.47053128480911257,
                1.0755836963653565,
                1.102105736732483,
                0.5190455317497253,
                0.4372599422931671,
                0.17453812062740327,
                0.6373435854911804,
                0.20435795187950135,
                1.102121353149414,
                0.1493382453918457,
                -0.040492814034223559,
                -0.09822778403759003,
                0.15209418535232545,
                0.3625936210155487,
                0.3391261398792267,
                0.18764479458332063,
                0.10812070965766907,
                0.08963759988546372,
                -0.0015120144234970213,
                0.036432649940252307,
                0.012052267789840699,
                -0.043070100247859958,
                -0.024914409965276719,
                0.05773598700761795,
                -0.0665196031332016,
                -0.10404152423143387,
                0.06654917448759079,
                0.4343242049217224,
                0.9964439272880554,
                1.1805330514907838,
                1.0880714654922486,
                0.604310154914856,
                0.7027242183685303,
                0.27438870072364809,
                0.11508054286241532,
                0.4382786750793457,
                0.3882182836532593,
                0.11484082788228989,
                0.18859262764453889,
                0.0636405199766159,
                0.38877707719802859,
                0.3143584430217743,
                0.32923653721809389,
                0.0636606439948082,
                0.1220131441950798,
                0.08348830789327622,
                -0.0449044331908226,
                0.04245856776833534,
                0.020062608644366266,
                0.006587544921785593,
                -0.0006973569397814572,
                0.15388308465480805,
                -0.11127325147390366,
                -0.13715395331382752,
                0.0920533537864685,
                0.20164449512958527,
                0.6991478204727173,
                0.28264644742012026,
                0.16688941419124604,
                0.7660260200500488,
                0.47757259011268618,
                0.031571969389915469,
                -0.5002119541168213,
                -0.1865922510623932,
                -0.15884709358215333,
                0.16575513780117036,
                0.09064507484436035,
                0.007946435362100602,
                0.3592585027217865,
                0.35913288593292239,
                0.052438147366046908,
                -0.15204934775829316,
                0.03483009338378906,
                0.06035485491156578,
                -0.008772530592978,
                0.008784716948866845,
                0.006431059446185827,
                0.023421259596943857,
                -0.04418331757187843,
                0.04544459655880928,
                -0.08129121363162995,
                0.12171443551778794,
                -0.46958473324775698,
                -0.6988903284072876,
                -0.30597227811813357,
                -0.3701128661632538,
                -0.878730833530426,
                -0.2543296217918396,
                -0.17802847921848298,
                -0.39085519313812258,
                -0.6754224300384522,
                -0.07746977359056473,
                0.1006225049495697,
                0.13110333681106568,
                0.4323311746120453,
                0.10101732611656189,
                0.405981183052063,
                0.4567435383796692,
                0.18187583982944489,
                -0.14319036900997163,
                -0.08075186610221863,
                -0.013529936783015728,
                -0.0070053692907094959,
                0.0014023978728801013,
                -0.02481580711901188,
                -0.04200640320777893,
                -0.18368522822856904,
                0.03603142499923706,
                -0.09676031768321991,
                -0.1478089541196823,
                -0.6889594197273254,
                -0.8464098572731018,
                -0.5754430890083313,
                -0.7852587699890137,
                -0.42321285605430605,
                -0.41014859080314639,
                -0.34080761671066286,
                -0.40717098116874697,
                -0.2547477185726166,
                -0.1183672547340393,
                0.08221474289894104,
                -0.01705404743552208,
                0.16055460274219514,
                0.03513306751847267,
                0.5732000470161438,
                0.1893240213394165,
                0.008600330911576748,
                -0.127704456448555,
                -0.11895536631345749,
                0.027492353692650796,
                -0.03388882428407669,
                0.01654091477394104,
                0.010600725188851357,
                -0.02949482388794422,
                0.06623886525630951,
                -0.015399866737425328,
                -0.15165089070796967,
                -0.43126678466796877,
                -0.2153618335723877,
                -0.3718022108078003,
                -0.5158558487892151,
                -0.5545114874839783,
                -0.21088306605815888,
                -0.007607324980199337,
                0.09908848255872727,
                -0.4480127692222595,
                0.050677210092544559,
                0.017234869301319124,
                -0.0251894723623991,
                -0.05788392573595047,
                0.21163220703601838,
                0.43160280585289,
                0.5714752078056336,
                0.34745335578918459,
                0.1676570177078247,
                0.10710470378398895,
                0.0026310288812965156,
                -0.016942674294114114,
                0.007158950436860323,
                -0.024577559903264047,
                -0.031392306089401248,
                0.08073610067367554,
                0.18596437573432923,
                0.3101162016391754,
                0.14786536991596223,
                -0.09344739466905594,
                0.22212539613246919,
                0.14921239018440247,
                -0.08712300658226013,
                0.1033199205994606,
                -0.183072030544281,
                -0.030494876205921174,
                0.04695639759302139,
                -0.20824457705020905,
                -0.20130310952663423,
                -0.043361347168684009,
                0.36826497316360476,
                0.3331804573535919,
                0.43709486722946169,
                0.41645392775535586,
                0.5091831088066101,
                0.43965989351272585,
                0.20671044290065766,
                0.1296539455652237,
                0.05100056901574135,
                -0.03224365785717964,
                -0.021100232377648355,
                -0.04651498794555664,
                -0.01925085112452507,
                0.00030004364089109004,
                0.07203218340873718,
                0.23590737581253053,
                0.3692921996116638,
                0.11399738490581513,
                0.41061848402023318,
                -0.03242674842476845,
                -0.4964013695716858,
                -0.15415354073047639,
                -0.3289801776409149,
                -0.3127986192703247,
                -0.35814735293388369,
                -0.38721001148223879,
                0.17847470939159394,
                -0.1115071177482605,
                0.2367611825466156,
                0.5510687828063965,
                0.356090247631073,
                0.3544514775276184,
                0.3249947130680084,
                0.17973263561725617,
                0.08556985855102539,
                0.004487637896090746,
                0.006982596591114998,
                -0.015638738870620729,
                0.030850229784846307,
                -0.017618292942643167,
                -0.0005620417068712413,
                0.023617282509803773,
                -0.07671025395393372,
                -0.07075653970241547,
                0.15498559176921845,
                0.19205375015735627,
                0.43798255920410159,
                -0.13883891701698304,
                -0.07167840003967285,
                0.031703460961580279,
                0.18321260809898377,
                -0.11288443207740784,
                -0.2029181569814682,
                -0.061587996780872348,
                0.48862752318382265,
                0.3195083737373352,
                0.3298397958278656,
                0.46044743061065676,
                0.33819833397865298,
                0.15849578380584718,
                0.18950007855892182,
                0.09116476774215698,
                0.10359752923250199,
                -0.01689569652080536,
                0.0047438121400773529,
                0.011354421265423298,
                0.003820200450718403,
                0.029095051810145379,
                0.019671771675348283,
                -0.010623644106090069,
                -0.08524403721094132,
                0.13867995142936707,
                0.2288726419210434,
                0.21222814917564393,
                0.04991978034377098,
                -0.12649212777614594,
                -0.577458381652832,
                0.22114504873752595,
                0.5993412733078003,
                0.35792413353919985,
                0.5379587411880493,
                0.5621129274368286,
                0.7221715450286865,
                0.30006831884384158,
                0.26480570435523989,
                0.21944688260555268,
                0.2141222506761551,
                0.15584586560726167,
                0.014699986204504967,
                0.09456086903810501,
                -0.012861017137765885,
                -0.034742970019578937,
                0.04912520572543144,
                0.022399000823497773,
                -0.03727209195494652,
                -0.013420971110463143,
                0.03334268927574158,
                0.04431668668985367,
                0.001018474460579455,
                0.07139994949102402,
                0.11163049191236496,
                0.1751570701599121,
                0.27546751499176028,
                -0.03964652866125107,
                -0.26586899161338808,
                0.39450061321258547,
                0.5829086899757385,
                0.4506523609161377,
                -0.16997559368610383,
                -0.20198063552379609,
                0.6353890299797058,
                0.3831118941307068,
                0.10200327634811402,
                0.008660414256155491,
                0.026137977838516237,
                -0.038262587040662768,
                0.04926887899637222,
                -0.033839575946331027,
                0.008419482968747616,
                0.020737318322062494,
                -0.0466146245598793,
                0.02192588895559311,
                0.022095004096627237,
                0.039684902876615527,
                -0.01706486940383911,
                0.038188137114048007,
                0.03145475313067436,
                -0.010132331401109696,
                0.021728089079260827,
                0.07834231853485108,
                0.07417283952236176,
                0.12934154272079469,
                0.1759958118200302,
                0.15177947282791139,
                0.17867133021354676,
                0.21639642119407655,
                0.1759822517633438,
                0.24261142313480378,
                0.11508724838495255,
                0.065119169652462,
                -0.015241216868162156,
                0.06004462018609047,
                -0.015127022750675679,
                0.059247203171253207,
                0.04393703117966652,
                -0.026979926973581315,
                0.04597865045070648,
                0.021662387996912004,
                -0.04311107099056244,
                -0.042326319962739947,
                -0.010163893923163414,
                0.011515647172927857,
                0.003757743863388896,
                0.03123246319591999,
                -0.02420346438884735,
                0.004915834404528141,
                -0.00795477069914341,
                0.04262138903141022,
                -0.03398029878735542,
                -0.018827242776751519,
                -0.029996363446116449,
                0.051301196217536929,
                0.0157415010035038,
                -0.04410184919834137,
                0.015322281047701836,
                -0.034021392464637759,
                -0.043660834431648257,
                -0.03846394270658493,
                -0.002387075452134013,
                -0.012564760632812977,
                0.02185445837676525,
                -0.0229618139564991,
                0.020971179008483888,
                0.011944552883505822,
                0.01254398562014103,
                -0.02798730693757534,
                0.008545178920030594,
                0.02754758670926094,
                0.04927734285593033,
                -0.04299364238977432,
                0.04145721718668938,
                -0.04016171768307686,
                -0.040115538984537128,
                -0.03984110802412033,
                -0.027148783206939698,
                0.03734100982546806,
                -0.028036966919898988,
                0.04516950994729996,
                0.027231963351368905,
                -0.024791069328784944,
                0.03589829429984093,
                -0.010291622951626778,
                0.006312955170869827,
                -0.03078049048781395,
                0.00015785815776325762,
                -0.011933107860386372,
                -0.028194362297654153,
                -0.0424397736787796,
                -0.019048558548092843,
                0.026549026370048524,
                -0.028579365462064744,
                0.034158024936914447,
                -0.02625499665737152,
                0.019510433077812196,
                -0.015002253465354443,
                -0.03701379895210266,
                0.03981281816959381,
                0.039479512721300128,
                -0.03188345208764076,
                -0.04621616005897522,
                0.04635395109653473,
                0.014806256629526616,
                0.04325980693101883,
                -0.04122386500239372,
                -0.006261598318815231,
                -0.0065874336287379269,
                0.01360656414180994,
                0.0015944289043545724,
                0.035099055618047717,
                0.027190925553441049,
                0.05919444188475609,
                -0.03695712238550186,
                -0.012684224173426628,
                -0.02431175671517849,
                0.0035003700759261848,
                -0.016565419733524324,
                0.020299041643738748,
                0.0024845795705914499,
                -0.03532172739505768,
                -0.024243833497166635,
                -0.049734462052583697,
                0.0009849537163972855,
                -0.0034038559533655645,
                -0.027271682396531106,
                0.03558572009205818,
                -0.04270080849528313,
                0.03609327971935272,
                -0.00962594710290432,
                0.025165434926748277,
                -0.040086470544338229,
                0.04750404506921768,
                -0.01488974504172802,
                0.05214769393205643,
                0.07267057150602341,
                0.026382027193903924,
                -0.005637898109853268,
                0.02344823069870472,
                -0.012387098744511605,
                -0.012859990820288659,
                -0.003687471617013216,
                0.022082706913352014,
                -0.0008702969062142074,
                -0.02580857090651989,
                0.024075821042060853,
                0.030129065737128259,
                -0.044533248990774158,
                -0.008624782785773278,
                -0.055301483720541,
                -0.03322374448180199,
                -0.04630313813686371,
                -0.0061005777679383759,
                -0.012670684605836869,
                0.0253591351211071,
                0.04306752607226372,
                -0.04642321541905403,
                -0.004639118909835815,
                -0.031792052090168,
                0.02053910307586193,
                -0.02481689304113388,
                -0.010392307303845883,
                0.02001989260315895,
                0.050313372164964679,
                0.10310559719800949,
                0.06592267751693726,
                0.0409395694732666,
                0.05082443729043007,
                0.020145166665315629,
                -0.07738994807004929,
                -0.07620102912187576,
                -0.12852102518081666,
                0.03464982658624649,
                -0.00855428259819746,
                0.0355144739151001,
                0.011680405586957932,
                -0.024454109370708467,
                -0.05463455989956856,
                -0.0634361281991005,
                0.031453248113393787,
                -0.01257227174937725,
                0.02365819551050663,
                0.008482095785439015,
                0.03505080193281174,
                -0.027656735852360727,
                0.022940026596188546,
                0.02003832533955574,
                0.017888814210891725,
                0.013801340945065022,
                0.03013652376830578,
                -0.038759615272283557,
                0.09567844867706299,
                0.0004881925415247679,
                0.13126008212566377,
                0.24940305948257447,
                0.30031710863113406,
                -0.09193617105484009,
                -0.21254320442676545,
                0.061036765575408939,
                -0.05468247830867767,
                -0.2248721718788147,
                -0.36851322650909426,
                -0.28192853927612307,
                -0.12954579293727876,
                0.1499338001012802,
                0.23168395459651948,
                0.057762060314416888,
                0.020730938762426378,
                0.045026469975709918,
                0.052252396941185,
                -0.0006345203146338463,
                0.025765597820281984,
                -0.0310269296169281,
                -0.023492611944675447,
                -0.01598946936428547,
                0.009330223314464093,
                0.12099644541740418,
                0.011540558189153672,
                0.10247845202684403,
                0.012477117590606213,
                0.01100748311728239,
                0.24619531631469727,
                0.21444812417030335,
                0.16550859808921815,
                0.010876186192035675,
                -0.060057274997234347,
                0.022738471627235414,
                0.13462616503238679,
                0.23433846235275269,
                0.07251378893852234,
                0.19686032831668855,
                -0.0002826429845299572,
                -0.11874308437108994,
                0.22789610922336579,
                0.12273379415273667,
                0.085314080119133,
                0.09500324726104737,
                0.03896889090538025,
                0.027772068977355958,
                -0.015299083665013314,
                0.0071201324462890629,
                0.001437849598005414,
                0.07126320153474808,
                0.11141705513000488,
                0.17632898688316346,
                0.24996446073055268,
                0.39525195956230166,
                0.1619056910276413,
                0.11821429431438446,
                0.2352430820465088,
                -0.006484573241323233,
                0.16533289849758149,
                -0.13169802725315095,
                -0.026953043416142465,
                -0.035646241158246997,
                -0.021892286837100984,
                -0.2596065402030945,
                0.13523203134536744,
                0.4487214684486389,
                0.22383619844913484,
                0.13918215036392213,
                0.0826624259352684,
                0.0907440260052681,
                0.11662972718477249,
                0.03797821328043938,
                0.03904259204864502,
                0.00030147007782943547,
                -0.006007664371281862,
                -0.0393386147916317,
                -0.022070061415433885,
                0.08481118828058243,
                0.12895135581493379,
                0.25232836604118349,
                0.28074249625205996,
                0.27493950724601748,
                0.03586876019835472,
                0.05101712420582771,
                0.26713520288467409,
                0.28451770544052126,
                0.042694441974163058,
                -0.3890179693698883,
                0.012293991632759571,
                0.07176224887371063,
                0.2981288731098175,
                0.004152263514697552,
                0.20408250391483308,
                0.1987125724554062,
                0.07438389211893082,
                0.0711110308766365,
                -0.09109017997980118,
                0.010575762949883938,
                0.008242994546890259,
                0.0837196558713913,
                0.06655802577733994,
                0.02866823598742485,
                0.0014371405122801662,
                -0.03900735825300217,
                0.01604844629764557,
                0.0347740538418293,
                0.07665444165468216,
                -0.04385843127965927,
                -0.1682240217924118,
                -0.05854658782482147,
                -0.26256173849105837,
                0.1234956756234169,
                0.1004132628440857,
                0.1269523650407791,
                0.051850803196430209,
                -0.4577869772911072,
                -0.5808438062667847,
                -0.1264960616827011,
                0.4063239097595215,
                0.03447369486093521,
                -0.04053512215614319,
                0.051448822021484378,
                -0.1468890756368637,
                -0.2996799945831299,
                -0.061935700476169589,
                0.027892615646123887,
                -0.04034845903515816,
                0.05822141841053963,
                -0.006698547396808863,
                -0.033946115523576739,
                0.0018340335227549077,
                -0.02076333574950695,
                0.04822535812854767,
                -0.010291309095919133,
                -0.05511491000652313,
                -0.2921150028705597,
                -0.24558492004871369,
                -0.03943626955151558,
                -0.1607728749513626,
                0.04136000946164131,
                -0.11367075890302658,
                -0.11858711391687393,
                -0.176405131816864,
                -0.4539543092250824,
                -0.8952600955963135,
                -0.5183485150337219,
                -0.5853690505027771,
                -0.5426613688468933,
                -0.271990567445755,
                -0.6618078351020813,
                -0.5446767210960388,
                -0.5155606865882874,
                -0.22361116111278535,
                -0.11048845201730728,
                0.09634538739919663,
                0.052086200565099719,
                0.03573111444711685,
                -0.03442512825131416,
                0.037085626274347308,
                0.017344456166028978,
                -0.010983583517372609,
                0.06410108506679535,
                -0.19506318867206574,
                -0.4979092478752136,
                -0.4927977919578552,
                -0.23237313330173493,
                -0.16259247064590455,
                -0.21732795238494874,
                -0.29746878147125246,
                -0.3401096761226654,
                0.06936626881361008,
                -0.3966299295425415,
                -0.7484802007675171,
                -0.7302547097206116,
                -0.7968904376029968,
                -0.6173461079597473,
                -0.6104756593704224,
                -1.1695464849472047,
                -0.6975776553153992,
                -0.49448469281196597,
                -0.4543479382991791,
                -0.33297547698020937,
                -0.02561749704182148,
                0.010213873349130154,
                0.03839350491762161,
                -0.018262116238474847,
                -0.027438247576355935,
                -0.004005035385489464,
                -0.00983173493295908,
                -0.019185669720172883,
