{
    "Layers": [
        {
            "NumNeurons": 128,
            "InputSize": 784,
            "Weights": [
                -0.024513667449355127,
                0.008876265026628971,
                -0.0404573492705822,
                -0.022099746391177179,
                0.0304166991263628,
                0.030560456216335298,
                -0.020820073783397676,
                -0.006898707244545221,
                0.006818300578743219,
                -0.022100189700722696,
                -0.033756427466869357,
                0.03125477209687233,
                0.03273830562829971,
                0.03206152096390724,
                -0.016347359865903856,
                -0.041541676968336108,
                -0.021769575774669648,
                0.03512902185320854,
                -0.019271189346909524,
                -0.001755136763677001,
                0.034080035984516147,
                -0.04705474525690079,
                0.03358753025531769,
                0.03337192162871361,
                0.019164733588695527,
                0.017687669023871423,
                0.018800821155309678,
                0.033633701503276828,
                -0.026903364807367326,
                0.025487886741757394,
                -0.00633894931524992,
                0.025398999452590944,
                0.040864232927560809,
                -0.0431186743080616,
                -0.01259155198931694,
                -0.030624156817793847,
                0.017717931419610978,
                0.010295901447534562,
                -0.007743143476545811,
                0.03029562346637249,
                -0.0007229596376419067,
                -0.031140748411417009,
                0.02743453159928322,
                -0.023580128327012063,
                -0.019942400977015497,
                -0.05007026344537735,
                -0.049120865762233737,
                0.023760197684168817,
                -0.0401870422065258,
                -0.03601759299635887,
                0.020076004788279535,
                -0.035718884319067,
                0.000342845160048455,
                0.03877666965126991,
                0.03398983180522919,
                -0.027458922937512399,
                0.025288736447691919,
                -0.023829272016882898,
                0.00873596966266632,
                -0.03737872838973999,
                -0.03832075744867325,
                -0.004468347877264023,
                -0.029713964089751245,
                0.02773313969373703,
                0.029482401907444,
                -0.011340759694576264,
                0.024600954726338388,
                0.006089650094509125,
                -0.03563518077135086,
                -0.05725618079304695,
                -0.015247135423123837,
                0.008506817743182183,
                -0.027557751163840295,
                -0.006012731697410345,
                0.04771849885582924,
                0.02513815462589264,
                -0.003342611016705632,
                0.011825879104435444,
                -0.02024998888373375,
                0.008199448697268963,
                0.0175173357129097,
                0.04439644142985344,
                0.02351371943950653,
                -0.04049338027834892,
                -0.044372495263814929,
                -0.020662974566221238,
                -0.024945639073848726,
                -0.048202913254499438,
                -0.029977666214108468,
                -0.03574618324637413,
                -0.0011675809510052205,
                -0.012949143536388874,
                -0.062140997499227527,
                -0.030213123187422754,
                0.006248809862881899,
                -0.0715903639793396,
                -0.11402294784784317,
                -0.038244109600782397,
                -0.06463766098022461,
                -0.09286877512931824,
                -0.05065459758043289,
                -0.03731026127934456,
                -0.015379829332232476,
                0.09462318569421768,
                0.07509773224592209,
                0.012173344381153584,
                0.08191536366939545,
                -0.009018631651997567,
                -0.029484586790204049,
                -0.02222900651395321,
                0.04784029722213745,
                -0.01865646243095398,
                -0.04485699534416199,
                -0.04497147351503372,
                -0.0026724955532699825,
                -0.03359934315085411,
                0.01630185917019844,
                -0.046498265117406848,
                0.02074631117284298,
                -0.02457805909216404,
                -0.09006977081298828,
                -0.056663818657398227,
                -0.14239227771759034,
                -0.21872268617153169,
                -0.19153423607349397,
                -0.15671436488628388,
                -0.21522387862205506,
                -0.2705845832824707,
                -0.10881345719099045,
                -0.07040700316429138,
                -0.07721185684204102,
                -0.0013601942919194699,
                0.09782762080430985,
                0.14044207334518434,
                0.09979595243930817,
                0.08082403987646103,
                0.030856279656291009,
                0.02170632779598236,
                -0.019412856549024583,
                -0.047259747982025149,
                0.0036705180536955597,
                -0.03178178891539574,
                0.04776681214570999,
                0.044705264270305637,
                -0.042856499552726749,
                -0.048389218747615817,
                -0.03662940859794617,
                0.00833190605044365,
                0.015245109796524048,
                -0.040215864777565,
                -0.09982875734567642,
                -0.15719880163669587,
                -0.24290591478347779,
                -0.30174046754837038,
                -0.1822960525751114,
                -0.15497161448001862,
                -0.07764177024364472,
                -0.0602337121963501,
                -0.01699197106063366,
                0.07344857603311539,
                0.05044422671198845,
                0.10238280892372132,
                0.08102816343307495,
                0.06486278772354126,
                0.04402510076761246,
                -0.0003406217147130519,
                -0.015329429879784584,
                -0.04416034370660782,
                0.026390206068754197,
                -0.04106496274471283,
                0.004055100027471781,
                0.0652833878993988,
                0.03395795822143555,
                0.07216533273458481,
                0.003477593185380101,
                0.08705180138349533,
                0.1096419021487236,
                -0.005825971253216267,
                -0.14901286363601685,
                -0.23682330548763276,
                -0.241017147898674,
                -0.20699545741081239,
                -0.12459658831357956,
                -0.12078114598989487,
                -0.1415189504623413,
                -0.016635438427329065,
                -0.016884820535779,
                0.06297823786735535,
                0.05364513769745827,
                0.06799978762865067,
                0.09843769669532776,
                0.0865698978304863,
                -0.021551070734858514,
                -0.02458512969315052,
                -0.00382867525331676,
                0.032636288553476337,
                0.029420970007777215,
                0.010954612866044045,
                -0.024721020832657815,
                0.03992416709661484,
                0.05910324305295944,
                0.053291212767362598,
                0.10513827949762345,
                0.22235219180583955,
                0.09225799888372421,
                0.041556719690561298,
                -0.2065362185239792,
                -0.26446089148521426,
                -0.31607508659362795,
                -0.2735523581504822,
                -0.17772185802459718,
                -0.2358299344778061,
                -0.06033961847424507,
                0.049152862280607226,
                -0.034589432179927829,
                -0.08792771399021149,
                -0.09781940281391144,
                -0.07185591012239456,
                0.019050855189561845,
                0.018711747601628305,
                -0.005355633795261383,
                -0.035130519419908527,
                -0.060132671147584918,
                0.03237845376133919,
                -0.005602463614195585,
                0.04747753217816353,
                0.016606563702225686,
                0.009424249641597271,
                0.01640375517308712,
                0.10479715466499329,
                0.15626758337020875,
                0.18550407886505128,
                0.07708656787872315,
                -0.04903442785143852,
                -0.141230970621109,
                -0.22334402799606324,
                -0.2717546820640564,
                -0.23879413306713105,
                -0.24491950869560243,
                -0.13378342986106873,
                -0.15850643813610078,
                -0.12745454907417298,
                -0.07180014252662659,
                -0.1414867788553238,
                -0.1307598054409027,
                -0.07994396984577179,
                -0.02095942199230194,
                -0.008512713946402073,
                -0.08124283701181412,
                -0.03250660002231598,
                -0.05803494155406952,
                -0.003569983644410968,
                -0.003727266099303961,
                -0.039201200008392337,
                0.04790695756673813,
                -0.022350825369358064,
                0.034907810389995578,
                0.14771130681037904,
                0.12545092403888703,
                0.07330948859453201,
                0.03948390483856201,
                -0.022750752046704294,
                -0.20516693592071534,
                -0.1775938719511032,
                -0.08512044697999954,
                -0.14532706141471864,
                -0.09416799992322922,
                -0.08772735297679901,
                -0.046412255614995959,
                -0.07049357146024704,
                -0.09846188873052597,
                -0.12081076949834824,
                -0.10156098008155823,
                -0.01371624507009983,
                -0.06391719728708267,
                -0.06664042174816132,
                -0.1174212247133255,
                -0.11657190322875977,
                -0.03415808081626892,
                0.04656792804598808,
                -0.01627318188548088,
                -0.04309057071805,
                0.0634237751364708,
                -0.029724597930908204,
                0.09664393216371536,
                0.12287002056837082,
                0.14744293689727784,
                0.04279675707221031,
                0.0290527381002903,
                -0.06337202340364456,
                -0.20479927957057954,
                -0.13926547765731812,
                0.0021404302679002287,
                0.07228751480579376,
                -0.12311863899230957,
                -0.0456736758351326,
                0.012849311344325543,
                -0.03514425456523895,
                0.00012288428843021393,
                -0.060259994119405749,
                -0.05344131588935852,
                -0.05255044996738434,
                -0.09483146667480469,
                -0.2066488265991211,
                -0.13309985399246217,
                -0.103585384786129,
                -0.041716568171978,
                -0.04646454006433487,
                -0.02105463668704033,
                0.05268501117825508,
                0.023241251707077028,
                0.055255018174648288,
                0.09401301294565201,
                0.006006306502968073,
                0.07571770250797272,
                0.08031976222991944,
                0.0010130676673725248,
                -0.16398857533931733,
                0.006270777899771929,
                0.06615588068962097,
                0.15931077301502229,
                -0.002688557840883732,
                -0.2107139229774475,
                -0.12395631521940232,
                0.03719877824187279,
                0.03756053373217583,
                -0.03297475725412369,
                -0.0019883685745298864,
                -0.06855011731386185,
                -0.09758196771144867,
                -0.08095404505729675,
                -0.15373104810714723,
                -0.17879414558410645,
                -0.09360143542289734,
                -0.026666807010769845,
                -0.03812588006258011,
                0.010724571533501149,
                0.0299635361880064,
                0.024605995044112207,
                0.03535649552941322,
                -0.015951020643115045,
                0.0016455051954835654,
                0.056790851056575778,
                0.08472198992967606,
                0.06336630135774613,
                -0.09314693510532379,
                0.06522908806800842,
                0.3451445400714874,
                0.3106628954410553,
                0.11490099132061005,
                -0.31936487555503847,
                -0.17101821303367616,
                0.176296204328537,
                0.16455641388893128,
                0.052467264235019687,
                -0.003322215750813484,
                -0.046781912446022037,
                -0.056623026728630069,
                -0.0546511746942997,
                -0.12259058654308319,
                -0.12319882959127426,
                -0.08058764040470123,
                -0.02083459310233593,
                0.042387038469314578,
                -0.02353823371231556,
                0.047008734196424487,
                0.027504853904247285,
                0.03843563422560692,
                0.07044362276792526,
                0.08530369400978089,
                0.11373317986726761,
                0.06195083260536194,
                0.0773174837231636,
                0.048122089356184009,
                0.2768445312976837,
                0.38350701332092287,
                0.2341671884059906,
                -0.33414050936698916,
                -0.4480643570423126,
                -0.29870370030403139,
                -0.054369352757930759,
                0.052035316824913028,
                -0.02589520253241062,
                0.013109263963997364,
                0.049618106335401538,
                0.01616057939827442,
                0.034978657960891727,
                0.031909991055727008,
                -0.06680034101009369,
                -0.042316634207963946,
                -0.0030001839622855188,
                0.01751214824616909,
                0.009447128511965275,
                -0.03798133507370949,
                0.0061544510535895828,
                -0.01637498289346695,
                0.006246544420719147,
                0.08071672171354294,
                0.1125854104757309,
                0.025896217674016954,
                0.0826268121600151,
                0.08731244504451752,
                0.35190486907958987,
                0.28947117924690249,
                0.000513928011059761,
                -0.43381935358047488,
                -0.45830038189888,
                -0.17831461131572724,
                -0.03555157408118248,
                0.07625214010477066,
                0.025390613824129106,
                0.08212178200483322,
                0.0527668334543705,
                0.001555599388666451,
                0.1028861477971077,
                0.14473514258861543,
                0.046283919364213946,
                0.0015135424910113216,
                -0.06273657828569412,
                0.010146263986825943,
                0.0002376749034738168,
                -0.04204675182700157,
                0.016635021194815637,
                0.014102735556662083,
                0.04909650608897209,
                0.054725125432014468,
                0.09129343926906586,
                0.10229327529668808,
                0.1267900913953781,
                0.15399445593357087,
                0.18990077078342439,
                0.06481572240591049,
                -0.16180197894573213,
                -0.4244158864021301,
                -0.42327120900154116,
                -0.16672147810459138,
                -0.07446873188018799,
                0.16928401589393617,
                0.1719585508108139,
                0.21146909892559052,
                0.0867711752653122,
                0.09648145735263825,
                0.20958048105239869,
                0.15678159892559052,
                -0.03742124140262604,
                -0.037036363035440448,
                -0.02870795875787735,
                -0.008365141227841378,
                0.023689838126301767,
                0.010911383666098118,
                -0.01160398032516241,
                0.01485605351626873,
                0.03334551304578781,
                0.028696704655885698,
                0.07057024538516998,
                0.10481179505586624,
                0.12022088468074799,
                0.11235800385475159,
                0.03353751078248024,
                -0.246538445353508,
                -0.38377195596694949,
                -0.43742597103118899,
                -0.37485358119010928,
                0.01915595307946205,
                0.04915839061141014,
                0.2423241138458252,
                0.1571793407201767,
                0.1826137900352478,
                0.1727929562330246,
                0.19822148978710175,
                0.09750841557979584,
                0.03159068524837494,
                0.00844507198780775,
                -0.04948532208800316,
                -0.03459349274635315,
                0.04076946899294853,
                -0.007639635354280472,
                0.02713276632130146,
                -0.015071616508066655,
                -0.015135284513235093,
                -0.04365461692214012,
                -0.013345501385629177,
                0.04741779342293739,
                0.02751309610903263,
                0.03480356186628342,
                0.09501298516988754,
                -0.043106935918331149,
                -0.26609498262405398,
                -0.38975486159324648,
                -0.3852102756500244,
                -0.10115979611873627,
                0.11603974550962448,
                0.22165411710739137,
                0.2625108063220978,
                0.1503308266401291,
                0.004320020787417889,
                0.030548980459570886,
                0.045534949749708179,
                0.03943349048495293,
                -0.07873787730932236,
                -0.02598312683403492,
                -0.055916108191013339,
                0.02369893342256546,
                -0.031130541115999223,
                -0.03207075968384743,
                0.0355314277112484,
                0.024195078760385515,
                -0.029546622186899186,
                -0.0428084135055542,
                0.011318570002913475,
                -0.0017725932411849499,
                0.05108916014432907,
                0.07730639725923538,
                -0.028473593294620515,
                -0.19217008352279664,
                -0.4056120812892914,
                -0.4506136476993561,
                -0.2414739429950714,
                -0.0904657319188118,
                -0.005521757528185844,
                0.1807384043931961,
                0.17342334985733033,
                0.07599662244319916,
                -0.06986143440008164,
                -0.04735903441905975,
                -0.02707778848707676,
                -0.05423961952328682,
                -0.07967832684516907,
                -0.08997295051813126,
                0.01791667751967907,
                -0.001827371772378683,
                -0.024951443076133729,
                -0.048257358372211459,
                0.03958209976553917,
                0.011406821198761464,
                0.005304916296154261,
                -0.07196763902902603,
                -0.041530851274728778,
                -0.019991211593151094,
                -0.08312348276376724,
                -0.02309100329875946,
                -0.16362404823303224,
                -0.26359042525291445,
                -0.363307386636734,
                -0.37437912821769717,
                -0.2803252637386322,
                -0.13996239006519319,
                -0.027150824666023256,
                0.12885670363903047,
                0.12717559933662415,
                0.03505463898181915,
                -0.048508718609809878,
                -0.06114037334918976,
                -0.1265961080789566,
                -0.17288149893283845,
                -0.16446609795093537,
                -0.012625752948224545,
                -0.017762316390872,
                0.032582838088274,
                0.03925284370779991,
                -0.04208905249834061,
                0.030247928574681283,
                -0.0343245267868042,
                -0.055981773883104327,
                -0.10809166729450226,
                -0.09218447655439377,
                -0.11331178992986679,
                -0.15359428524971009,
                -0.19370333850383759,
                -0.1959945261478424,
                -0.27452191710472109,
                -0.2401800900697708,
                -0.2435065358877182,
                -0.21959315240383149,
                -0.1251218318939209,
                0.014642530120909214,
                0.050552915781736377,
                0.12388394773006439,
                0.16440023481845857,
                0.045766010880470279,
                -0.1375291794538498,
                -0.1392999291419983,
                -0.10442817956209183,
                -0.07962879538536072,
                -0.018858518451452256,
                -0.054208554327487949,
                0.0028696691151708366,
                0.022183146327733995,
                -0.014727461151778698,
                -0.00546351308003068,
                0.04215036705136299,
                -0.013189517892897129,
                -0.014721379615366459,
                -0.12824606895446778,
                -0.19674572348594666,
                -0.19196774065494538,
                -0.126874640583992,
                -0.23699647188186646,
                -0.09865079075098038,
                -0.03441819176077843,
                -0.038765788078308108,
                -0.08006113767623902,
                -0.12533007562160493,
                -0.07286566495895386,
                0.10801901668310166,
                0.20675739645957948,
                0.19476109743118287,
                0.12409043312072754,
                -0.0006059127626940608,
                -0.020566588267683984,
                -0.08518251776695252,
                -0.0057618203572928909,
                0.005859566852450371,
                0.03629022091627121,
                0.02791612036526203,
                0.046842146664857867,
                0.03211449831724167,
                0.005720207002013922,
                0.022005300968885423,
                -0.07193295657634735,
                -0.06958796828985214,
                -0.09736547619104386,
                -0.06908205896615982,
                -0.056489959359169009,
                -0.03975019231438637,
                -0.12260682135820389,
                -0.11452638357877732,
                -0.02822212316095829,
                -0.06950204074382782,
                0.0254830289632082,
                -0.046415116637945178,
                0.08018729835748673,
                0.06554076075553894,
                0.16268809139728547,
                0.2351675033569336,
                0.20755381882190705,
                0.12358108162879944,
                0.0690731555223465,
                -0.06861801445484162,
                -0.010555977933108807,
                0.013215788640081883,
                -0.039844393730163577,
                0.04967870935797691,
                0.029008964076638223,
                -0.03169895336031914,
                -0.033713456243276599,
                0.04768514260649681,
                0.028043098747730256,
                -0.03777478262782097,
                -0.06266237795352936,
                -0.046511925756931308,
                -0.0733090341091156,
                -0.05886995419859886,
                -0.08331135660409928,
                -0.14241339266300202,
                -0.16254156827926637,
                -0.10346890985965729,
                -0.048884112387895587,
                -0.05582085996866226,
                -0.012788391672074795,
                0.05851612240076065,
                0.22798627614974976,
                0.248060941696167,
                0.21748819947242738,
                0.128632053732872,
                0.008332832716405392,
                -0.02449926733970642,
                -0.041881904006004336,
                -0.023168358951807023,
                0.028688723221421243,
                -0.03671802952885628,
                0.041941747069358829,
                -0.016209697350859643,
                0.04387284815311432,
                -0.02219368703663349,
                0.04713542386889458,
                -0.04483254253864288,
                0.04502744972705841,
                0.02306017279624939,
                -0.008351429365575314,
                -0.08973497152328491,
                -0.06927957385778427,
                -0.14112907648086549,
                -0.18714898824691773,
                -0.11386491358280182,
                -0.03501647710800171,
                -0.07458215951919556,
                0.0007011530688032508,
                0.09692338109016419,
                0.13116446137428285,
                0.21703937649726869,
                0.21271760761737824,
                0.11323827505111695,
                -0.024370133876800538,
                0.004205227829515934,
                -0.05700951814651489,
                0.02245933562517166,
                0.02482658065855503,
                -0.009866476058959961,
                0.031226934865117074,
                0.0005726148374378681,
                -0.011333293281495572,
                -0.009240427054464817,
                0.004104084800928831,
                0.050564490258693698,
                -0.021132230758666993,
                0.028112441301345826,
                -0.03006240539252758,
                -0.0487343966960907,
                -0.10060660541057587,
                -0.1915990263223648,
                -0.17472003400325776,
                -0.1270836591720581,
                -0.17642606794834138,
                -0.17556153237819673,
                -0.12076965719461441,
                -0.020534662529826165,
                -0.043444909155368808,
                -0.044747017323970798,
                -0.0200810544192791,
                0.0150953633710742,
                0.0007323388708755374,
                -0.025125790387392045,
                -0.012624027207493782,
                -0.056355420500040057,
                0.010239793919026852,
                -0.02969755418598652,
                -0.026380328461527826,
                -0.024632209911942483,
                0.048688627779483798,
                -0.038983412086963657,
                -0.012563535943627358,
                0.006886268500238657,
                0.04388529434800148,
                -0.030105654150247575,
                -0.06026183441281319,
                -0.04416903108358383,
                -0.11421509087085724,
                -0.14359046518802644,
                -0.062303535640239719,
                -0.13928765058517457,
                -0.16254973411560059,
                -0.18706823885440827,
                -0.08382070809602738,
                -0.0737808421254158,
                -0.12466476857662201,
                0.007602954749017954,
                -0.031838249415159228,
                -0.031102126464247705,
                -0.034396763890981677,
                0.0011791099095717073,
                0.0209345743060112,
                0.018798738718032838,
                0.04780067875981331,
                0.04698726907372475,
                -0.04675031825900078,
                -0.02585212141275406,
                0.04575992375612259,
                0.001124344882555306,
                -0.01080107968300581,
                -0.03564130514860153,
                0.013687433674931527,
                -0.03431253135204315,
                0.017385397106409074,
                0.00008815054752631113,
                0.0425429530441761,
                0.01871282234787941,
                0.004666649270802736,
                -0.04182179272174835,
                0.022479193285107614,
                0.006549886427819729,
                -0.007516593672335148,
                -0.05158758908510208,
                -0.03145679086446762,
                -0.00837448239326477,
                0.03108539618551731,
                -0.04496423155069351,
                -0.007349610328674316,
                0.038413725793361667,
                0.016934635117650033,
                0.01231661532074213,
                0.04399996995925903,
                0.036316707730293277,
                0.035923466086387637,
                -0.004131960216909647,
                -0.011900229379534722,
                0.017783448100090028,
                0.008669638074934483,
                0.04887225106358528,
                -0.030426867306232454,
                0.026083359494805337,
                -0.0017276725266128779,
                0.012568405829370022,
                0.018816234543919565,
                0.021992826834321023,
                -0.004439377225935459,
                0.04386335611343384,
                0.024443795904517175,
                -0.02437746524810791,
                0.02385440655052662,
                0.009760442189872265,
                -0.0106890257447958,
                -0.04601573199033737,
                0.014666537754237652,
                0.004415836650878191,
                0.04032687097787857,
                0.01557836588472128,
                0.0018021391006186605,
                0.014587406069040299,
                -0.026531057432293893,
                -0.04687679558992386,
                0.04015667736530304,
                -0.030975105240941049,
                0.036553993821144107,
                0.02688230387866497,
                -0.029641689732670785,
                0.02730349637567997,
                -0.01918172463774681,
                -0.025016942992806436,
                -0.03831242024898529,
                -0.02437608875334263,
                -0.030993975698947908,
                0.0062447162345051769,
                -0.051285311579704288,
                0.04451080411672592,
                -0.014678237959742546,
                0.0490325503051281,
                -0.012415077537298203,
                -0.004935108590871096,
                0.036999158561229709,
                0.02929411083459854,
                -0.025040805339813234,
                -0.04194428399205208,
                -0.04712318629026413,
                -0.04519087076187134,
                -0.026997482404112817,
                0.040015704929828647,
                -0.028349829837679864,
                -0.01849236898124218,
                0.005541169084608555,
                0.022521404549479486,
                -0.03401869162917137,
                0.04408186301589012,
                0.025362320244312288,
                -0.033555299043655398,
                0.035874608904123309,
                -0.023705830797553064,
                0.01820799708366394,
                0.03256216645240784,
                -0.011875182390213013,
                -0.0004718144773505628,
                -0.004594638478010893,
                -0.03264203295111656,
                -0.07914768904447556,
                -0.046619780361652377,
                -0.05613825470209122,
                -0.00042772915912792087,
                -0.06886667013168335,
                0.003227708861231804,
                -0.04836712405085564,
                0.021809933707118036,
                -0.039584968239068988,
                -0.05105338618159294,
                0.024316001683473588,
                -0.00787921342998743,
                0.027682708576321603,
                0.031788039952516559,
                -0.03385572507977486,
                0.031744085252285007,
                0.003876662813127041,
                -0.01965813897550106,
                0.005341009236872196,
                0.04903150722384453,
                0.022594619542360307,
                -0.008616750128567219,
                -0.04505094513297081,
                -0.03528629615902901,
                0.008930741809308529,
                0.012270811013877392,
                -0.07944096624851227,
                -0.09439993649721146,
                -0.13404686748981477,
                -0.1319492757320404,
                -0.07205447554588318,
                -0.14387184381484986,
                -0.1320943534374237,
                -0.04559614136815071,
                0.00010152492905035615,
                -0.04976310953497887,
                -0.03005598857998848,
                -0.028835149481892587,
                0.0301723200827837,
                -0.001534261042252183,
                -0.03706634044647217,
                0.015135475434362889,
                -0.0045347437262535099,
                -0.03995653986930847,
                -0.032850977033376697,
                -0.018433701246976854,
                -0.0065093738958239559,
                -0.019948188215494157,
                -0.0060337441973388199,
                0.08733934164047241,
                0.009897956624627114,
                0.01461813971400261,
                -0.018471920862793924,
                -0.005508695729076862,
                -0.03864746168255806,
                -0.12808267772197724,
                -0.21988172829151154,
                -0.3201850652694702,
                -0.19428838789463044,
                -0.26127514243125918,
                -0.18600262701511384,
                -0.1361924707889557,
                -0.06231718137860298,
                -0.05363047495484352,
                -0.09380826354026795,
                -0.029345668852329255,
                -0.03577840328216553,
                -0.04384709522128105,
                0.03643617033958435,
                0.011685631237924099,
                -0.03276228532195091,
                -0.039600398391485217,
                -0.008499174378812313,
                -0.047792546451091769,
                0.03964126482605934,
                -0.015614158473908902,
                0.12380204349756241,
                0.036324672400951388,
                0.024274181574583055,
                -0.028032392263412477,
                -0.08506175130605698,
                -0.1359570473432541,
                -0.026771405711770059,
                -0.18378432095050813,
                -0.22038725018501283,
                -0.3249680995941162,
                -0.35466957092285159,
                -0.2715986669063568,
                -0.41037434339523318,
                -0.2038017064332962,
                -0.13210245966911317,
                -0.05814264714717865,
                -0.09944991767406464,
                -0.02402939274907112,
                0.03804664686322212,
                -0.02023179642856121,
                0.060544732958078387,
                0.018052902072668077,
                0.04836314916610718,
                0.009607812389731408,
                -0.04605330154299736,
                -0.004180982243269682,
                -0.0143465930595994,
                0.07237491756677628,
                0.10963659733533859,
                0.0798734724521637,
                0.1159239411354065,
                0.08388969302177429,
                0.13202860951423646,
                0.18050003051757813,
                0.18179981410503388,
                0.05841318890452385,
                0.19818919897079469,
                0.36570677161216738,
                0.19824129343032838,
                -0.01919734850525856,
                -0.15700998902320863,
                -0.19185896217823029,
                -0.26466530561447146,
                -0.14517688751220704,
                -0.10224025696516037,
                -0.034125808626413348,
                0.023859238252043725,
                0.0371624156832695,
                0.019253702834248544,
                0.03307338431477547,
                0.013233539648354054,
                0.017472553998231889,
                -0.04252530261874199,
                0.03066636435687542,
                -0.005481556989252567,
                0.08478737622499466,
                -0.026978131383657457,
                0.04608042165637016,
                0.016160188242793084,
                -0.030555691570043565,
                0.15760640799999238,
                0.1630634218454361,
                0.16192477941513062,
                0.5282240509986877,
                0.7192813754081726,
                0.7385911345481873,
                0.2630655765533447,
                -0.1429257094860077,
                -0.2751528322696686,
                -0.39012497663497927,
                -0.47263801097869875,
                -0.34984683990478518,
                -0.25311505794525149,
                -0.18207623064517976,
                -0.05098491162061691,
                0.018192917108535768,
                0.05386844649910927,
                0.019599566236138345,
                -0.03949261084198952,
                -0.021052313968539239,
                -0.015692565590143205,
                0.01878303475677967,
                -0.008399334736168385,
                -0.008555068634450436,
                -0.07533936202526093,
                -0.13342033326625825,
                -0.17941884696483613,
                -0.023396920412778856,
                0.12731370329856873,
                0.12457145005464554,
                0.25845471024513247,
                0.4764772355556488,
                0.4531991481781006,
                0.23368021845817567,
                0.022229518741369249,
                -0.16166020929813386,
                -0.23842313885688783,
                -0.36572954058647158,
                -0.5290523171424866,
                -0.31574952602386477,
                -0.3341192305088043,
                -0.20417147874832154,
                -0.10309354960918427,
                -0.018947364762425424,
                -0.02380281500518322,
                0.016999144107103349,
                0.01235994603484869,
                0.011021618731319905,
                0.03952896222472191,
                0.007212616037577391,
                0.021552953869104387,
                0.1113603264093399,
                -0.05608803406357765,
                -0.01960895210504532,
                0.08626500517129898,
                0.2081366926431656,
                0.20540618896484376,
                0.2261277437210083,
                0.393229216337204,
                0.31325164437294009,
                0.09225892275571823,
                0.05236466974020004,
                -0.05636494234204292,
                -0.23490898311138154,
                -0.22110077738761903,
                -0.24678726494312287,
                -0.4506480395793915,
                -0.25308549404144289,
                -0.2292395830154419,
                -0.21262429654598237,
                -0.09182590991258621,
                -0.0670316144824028,
                -0.010132074356079102,
                0.0035955915227532388,
                -0.021795518696308137,
                0.01813902147114277,
                0.042288895696401599,
                0.006004393566399813,
                0.14081181585788728,
                0.07448331266641617,
                0.05204224959015846,
                0.02573523111641407,
                0.030926533043384553,
                0.205710768699646,
                0.3037036955356598,
                0.2962343096733093,
                0.2727041244506836,
                0.02565228007733822,
                -0.0000937684380915016,
                -0.11455490440130234,
                -0.22007985413074494,
                -0.19023972749710084,
                -0.01890505477786064,
                0.01831221766769886,
                -0.10080473124980927,
                -0.0336669385433197,
                -0.15124917030334474,
                -0.13499930500984193,
                -0.1430831104516983,
                -0.052760086953639987,
                0.020947551354765893,
                -0.030994143337011339,
                0.0341874435544014,
                0.029875706881284715,
                0.0169625673443079,
                -0.008646811358630658,
                0.09403030574321747,
                0.1588539481163025,
                0.14624346792697907,
                0.028229616582393647,
                -0.02730369195342064,
                0.14620672166347505,
                0.0646953135728836,
                -0.13018354773521424,
                -0.03501425310969353,
                -0.18210025131702424,
                0.0011208861833438278,
                -0.01458304189145565,
                -0.03135620802640915,
                -0.08055514097213745,
                0.2882251441478729,
                0.2110104262828827,
                0.09842389822006226,
                0.037419140338897708,
                -0.0625678226351738,
                -0.06192528083920479,
                -0.09240060299634934,
                -0.0236677099019289,
                0.06224655732512474,
                -0.03855979070067406,
                0.014466075226664544,
                0.006253128405660391,
                -0.004804249852895737,
                -0.005378131289035082,
                0.0600801482796669,
                0.06040194258093834,
                0.07343348860740662,
                0.022176804021000863,
                -0.022943738847970964,
                -0.024211959913372995,
                0.048525821417570117,
                -0.2207326889038086,
                -0.26146119832992556,
                -0.27041709423065188,
                -0.0567471869289875,
                0.08201230317354202,
                -0.02579706348478794,
                -0.10127536952495575,
                0.238289937376976,
                0.2530387341976166,
                0.06894929707050324,
                -0.033146753907203677,
                -0.04726417362689972,
                -0.12587855756282807,
                -0.07321611791849137,
                -0.1469305157661438,
                -0.020606622099876405,
                -0.002364020561799407,
                -0.040845390409231189,
                -0.01869657076895237,
                -0.039374519139528278,
                0.030688907951116563,
                0.0587175153195858,
                0.0094790393486619,
                -0.07553217560052872,
                -0.0677037313580513,
                -0.05078322812914848,
                -0.09296195954084397,
                -0.10380548983812332,
                -0.15277262032032014,
                -0.17136014997959138,
                -0.10424388200044632,
                0.08366725593805313,
                0.035395607352256778,
                -0.12099660187959671,
                0.040552861988544467,
                0.22453638911247254,
                0.005001369398087263,
                -0.1785220205783844,
                -0.06826012581586838,
                -0.10369684547185898,
                -0.1532859057188034,
                -0.220908522605896,
                -0.10248764604330063,
                -0.05384174734354019,
                -0.05998687073588371,
                0.006117552984505892,
                0.04785614088177681,
                0.01946486160159111,
                0.011939490213990212,
                0.053204573690891269,
                -0.15471073985099793,
                -0.23521290719509126,
                -0.2019040733575821,
                -0.05750703811645508,
                -0.004101729020476341,
                -0.1260395050048828,
                -0.23906466364860536,
                -0.2741016149520874,
                -0.12559737265110017,
                -0.1726864129304886,
                -0.202726811170578,
                -0.022038478404283525,
                0.21792340278625489,
                -0.10867013782262802,
                -0.18309468030929566,
                -0.26745834946632388,
                -0.0755302831530571,
                0.013259527273476124,
                -0.2008446902036667,
                -0.17677514255046845,
                -0.08431149274110794,
                -0.026643339544534684,
                -0.06004543602466583,
                0.024021556600928308,
                0.006398204248398542,
                0.016738519072532655,
                -0.03527124598622322,
                -0.03777597099542618,
                -0.15116392076015473,
                -0.19299887120723725,
                -0.2667951285839081,
                -0.14992357790470124,
                -0.035290900617837909,
                -0.07078596204519272,
                -0.010786873288452626,
                -0.07366517931222916,
                -0.1190512478351593,
                -0.2349192053079605,
                -0.15945790708065034,
                0.06933356821537018,
                0.023163875564932824,
                -0.14816568791866303,
                -0.14438454806804658,
                -0.15065902471542359,
                0.049039579927921298,
                0.18026426434516908,
                -0.033476460725069049,
                -0.12620148062705995,
                -0.06239811331033707,
                -0.07274053245782852,
                -0.002963901963084936,
                -0.0013222272973507643,
                -0.01986708864569664,
                -0.03249974548816681,
                -0.030695905908942224,
                -0.055425554513931277,
                -0.15510210394859315,
                -0.27221089601516726,
                -0.16908389329910279,
                -0.14256949722766877,
                -0.03593003377318382,
                0.07638071477413178,
                0.13003608584403993,
                0.284309446811676,
                0.12079894542694092,
                -0.06122585013508797,
                -0.1842690259218216,
                -0.05446699261665344,
                -0.38435134291648867,
                -0.3857431709766388,
                -0.12328264862298966,
                0.010482056997716427,
                0.08169835805892945,
                0.24850429594516755,
                0.14707818627357484,
                -0.07531331479549408,
                -0.06250019371509552,
                -0.09179744869470597,
                0.0355093851685524,
                -0.013115836307406426,
                0.04882558807730675,
                0.01473508682101965,
                0.023879781365394594,
                0.03941918909549713,
                -0.13846033811569215,
                -0.2233126163482666,
                -0.23141367733478547,
                -0.09660529345273972,
                0.06322887539863587,
                0.03750205785036087,
                0.08088645339012146,
                0.23045538365840913,
                0.26292598247528078,
                0.07273838669061661,
                -0.18524274230003358,
                -0.1664319634437561,
                -0.42494651675224306,
                -0.4395368695259094,
                -0.2741493880748749,
                0.17882390320301057,
                0.27847886085510256,
                0.3189220726490021,
                0.05487607792019844,
                -0.13550367951393128,
                -0.11179794371128082,
                -0.11784428358078003,
                -0.05041007697582245,
                0.030260708183050157,
                -0.01444427203387022,
                0.019966885447502137,
                -0.011915643699467183,
                0.0400676466524601,
                -0.05734516680240631,
                -0.1958101987838745,
                -0.24884237349033357,
                -0.19051751494407655,
                -0.1437883824110031,
                -0.2193751186132431,
                -0.13839931786060334,
                -0.027227414771914483,
                -0.2150677591562271,
                -0.2555426061153412,
                -0.38309231400489809,
                -0.2872983515262604,
                -0.346081018447876,
                -0.23384179174900056,
                -0.19500625133514405,
                0.04567896947264671,
                0.33812153339385989,
                0.37275516986846926,
                0.02036755345761776,
                -0.06057550385594368,
                -0.10825489461421967,
                -0.0670761987566948,
                0.00323752174153924,
                0.02463822066783905,
                0.003270189044997096,
                0.01934480108320713,
                -0.01972300186753273,
                -0.007991653867065907,
                -0.001193249598145485,
                -0.1575694978237152,
                -0.2750180959701538,
                -0.29606863856315615,
                -0.3226015865802765,
                -0.466623455286026,
                -0.5164276361465454,
                -0.6565118432044983,
                -0.6909546852111816,
                -0.6143130660057068,
                -0.45737871527671816,
                -0.28627610206604006,
                -0.1012139618396759,
                -0.04309167340397835,
                -0.04881112650036812,
                0.1808658242225647,
                0.21442517638206483,
                0.22805243730545045,
                0.07945366203784943,
                -0.127888023853302,
                -0.1022157147526741,
                0.006394186057150364,
                -0.05002407357096672,
                0.0034748315811157228,
                -0.008038615807890892,
                -0.00830599945038557,
                0.04086219146847725,
                -0.005343915894627571,
                0.01492180023342371,
                -0.11510126292705536,
                -0.2405104786157608,
                -0.26983481645584109,
                -0.35130980610847475,
                -0.464005708694458,
                -0.5420386791229248,
                -0.7647354602813721,
                -0.9406306147575378,
                -0.6841036677360535,
                -0.3894847333431244,
                -0.19561392068862916,
                0.09579194337129593,
                0.08132471889257431,
                0.06999146938323975,
                0.26074761152267458,
                0.19677691161632539,
                0.1249379962682724,
                0.09160696715116501,
                -0.027987489476799966,
                -0.024974819272756578,
                0.024062873795628549,
                -0.0409885048866272,
                -0.03548308089375496,
                0.041989296674728397,
                -0.049009498208761218,
                0.03279977664351463,
                0.06094714254140854,
                -0.046341679990291598,
                -0.04885995388031006,
                -0.08351846039295197,
                -0.15598590672016145,
                -0.2832108438014984,
                -0.4420715570449829,
                -0.43097907304763796,
                -0.6123549342155457,
                -0.6918891668319702,
                -0.418202668428421,
                -0.1875312328338623,
                -0.058641467243433,
                0.19678077101707459,
                -0.018230373039841653,
                0.047912340611219409,
                0.10139644145965576,
                0.09935206919908524,
                -0.017114996910095216,
                0.08200458437204361,
                0.04057472571730614,
                -0.03705497086048126,
                -0.023555442690849305,
                0.01748359389603138,
                -0.046364281326532367,
                0.04465936869382858,
                -0.006602184846997261,
                0.003261000383645296,
                -0.03017260506749153,
                -0.03240817040205002,
                0.027386603876948358,
                -0.016587765887379648,
                -0.13828246295452119,
                -0.21874460577964784,
                -0.29205796122550967,
                -0.1983923763036728,
                -0.3529745936393738,
                -0.2340257316827774,
                -0.1332389861345291,
                -0.10808012634515763,
                0.004139163997024298,
                0.07180962711572647,
                0.008600220084190369,
                0.04908240586519241,
                -0.11540718376636505,
                -0.08350981771945954,
                -0.13313089311122895,
                0.052036747336387637,
                0.0009426105534657836,
                0.034403737634420398,
                0.04823221266269684,
                -0.04032047092914581,
                0.022373681887984277,
                -0.008259464986622334,
                0.045166634023189548,
                0.030629346147179605,
                0.04686800763010979,
                0.07585972547531128,
                0.07180188596248627,
                0.019490642473101617,
                0.06448893994092941,
                -0.10568234324455261,
                -0.16263669729232789,
                -0.04522428289055824,
                -0.041469283401966098,
                0.03131060674786568,
                0.11049424111843109,
                0.08982286602258682,
                0.061904747039079669,
                -0.03804031386971474,
                -0.004081312101334333,
                -0.1379540115594864,
                -0.2050536870956421,
                -0.18024325370788575,
                -0.10864618420600891,
                0.035342972725629809,
                0.0699174776673317,
                0.0967649593949318,
                0.03472626954317093,
                -0.0019018789753317834,
                -0.0008230376988649368,
                0.048315323889255527,
                -0.0007651095511391759,
                -0.01586736924946308,
                -0.005938100628554821,
                0.08650416880846024,
                0.08987412601709366,
                0.1206849217414856,
                0.156436026096344,
                0.1457091122865677,
                0.17440371215343476,
                0.1743226796388626,
                0.3219856321811676,
                0.15451832115650178,
                0.24117624759674073,
                0.1046760156750679,
                -0.06285549700260163,
                0.11402183771133423,
                0.07294505089521408,
                -0.13409392535686494,
                -0.15846264362335206,
                -0.05894647538661957,
                0.06356265395879746,
                0.10276677459478378,
                0.1075834408402443,
                0.020875856280326844,
                -0.010142561979591847,
                -0.025132549926638604,
                0.032906673848629,
                -0.005984231363981962,
                0.018634235486388208,
                -0.04546435922384262,
                -0.044287919998168948,
                0.004899068269878626,
                0.05416356399655342,
                0.07142546027898789,
                0.11291007697582245,
                0.2216750681400299,
                0.267436683177948,
                0.24079030752182008,
                0.31288859248161318,
                0.3645686209201813,
                0.41971954703330996,
                0.19553545117378236,
                0.11900749057531357,
                0.28333133459091189,
                0.18623852729797364,
                0.14306184649467469,
                0.23133672773838044,
                0.17262054979801179,
                0.039530642330646518,
                -0.021478261798620225,
                -0.009434720501303673,
                0.009504913352429867,
                0.023792408406734468,
                -0.008645863272249699,
                -0.048923201858997348,
                0.014885274693369866,
                0.005829579662531614,
                0.02786826901137829,
                -0.015364584513008595,
                -0.013075311668217183,
                0.0377509705722332,
                -0.013985777273774147,
                -0.04495418071746826,
                0.038165852427482608,
                -0.003776953089982271,
                0.11870110780000687,
                0.164655864238739,
                0.1769455075263977,
                0.19316309690475465,
                0.2534034252166748,
                0.14605307579040528,
                0.12742014229297639,
                0.1979634016752243,
                0.1433020383119583,
                0.07244598120450974,
                0.04195499047636986,
                0.0472392812371254,
                0.05137196555733681,
                0.05231305584311485,
                -0.030361011624336244,
                -0.040681980550289157,
                -0.03463224694132805,
                -0.0428302101790905,
                0.004036369733512402,
                0.0236186683177948,
                0.010379483923316002,
                -0.0023894072510302068,
                -0.039443448185920718,
                -0.0082264868542552,
                0.045380957424640658,
                -0.01760035939514637,
                -0.03582887724041939,
                0.04814290255308151,
                0.007768918760120869,
                -0.013792989775538445,
                -0.001835896517150104,
                0.0312647745013237,
                0.05630606412887573,
                0.05900781974196434,
                0.03691202029585838,
                -0.0007640476687811315,
                -0.012385091744363308,
                -0.007198732811957598,
                -0.03718779608607292,
                -0.03521202132105827,
                -0.03093559481203556,
                0.04333244636654854,
                -0.03504939377307892,
                -0.04570503905415535,
                0.03194023668766022,
                -0.02601235918700695,
                0.026190346106886865,
                0.028239965438842775,
                -0.03424815088510513,
                -0.024614499881863595,
                0.014524273574352265,
                -0.03322567418217659,
                -0.0029666912741959097,
                0.04584990441799164,
                -0.005645567085593939,
                -0.01995551772415638,
                0.024699818342924119,
                -0.0036113800015300514,
                -0.013387965969741345,
                0.04777650535106659,
                0.04051599279046059,
                -0.031124958768486978,
                0.046088166534900668,
                -0.02770664170384407,
                0.04129030928015709,
                -0.007895718328654766,
                0.01691422611474991,
                0.03969534486532211,
                -0.022118575870990754,
                0.026920678094029428,
                0.03166794776916504,
                0.02896813675761223,
                0.04763605818152428,
                -0.007070985622704029,
                0.009789690375328064,
                0.017635760828852655,
                -0.01734001375734806,
                -0.043738462030887607,
                0.009939484298229218,
                0.02130543254315853,
                0.006917556282132864,
                -0.010733275674283505,
                0.03290163353085518,
                -0.016916153952479364,
                0.03519514575600624,
                -0.005406386684626341,
                -0.0070951348170638088,
                0.03550688177347183,
                -0.002922426676377654,
                0.00016747509653214365,
                0.04119018092751503,
                0.04025215655565262,
                -0.04948648437857628,
                -0.03595944866538048,
                -0.028223834931850435,
                0.046838533133268359,
                0.04919811338186264,
                0.043948058038949969,
                -0.03699534758925438,
                -0.010164044797420502,
                0.007073414046317339,
                0.03649500384926796,
                0.0003585417871363461,
                -0.0111688282340765,
                -0.006282406859099865,
                0.03555832430720329,
                -0.03084913082420826,
                -0.045824866741895679,
                -0.011451806873083115,
                0.03702780231833458,
                0.05601836368441582,
                0.0363820418715477,
                0.10137613862752915,
                0.08272969722747803,
                0.06259837746620178,
                0.08280535787343979,
                0.05454491078853607,
                0.07254531979560852,
                0.06397695094347,
                0.05090177431702614,
                -0.02811424434185028,
                0.05832161381840706,
                0.019862664863467218,
                0.05826437100768089,
                -0.030440449714660646,
                -0.04428359121084213,
                0.032239753752946857,
                0.036091431975364688,
                -0.027662552893161775,
                0.014835746958851815,
                0.02098020538687706,
                -0.009997260756790638,
                0.043101005256175998,
                -0.029919369146227838,
                -0.03568420186638832,
                0.021239401772618295,
                0.04600948095321655,
                0.0274323932826519,
                0.09041927009820938,
                0.11106682568788529,
                0.09618308395147324,
                0.13414664566516877,
                0.14660413563251496,
                0.22158664464950562,
                0.23807455599308015,
                0.1882316768169403,
                0.14279136061668397,
                0.06932242959737778,
                0.0696253776550293,
                0.07378405332565308,
                0.09592816978693009,
                -0.0032970563042908909,
                0.0029522718396037819,
                0.023140883073210717,
                0.0009797901147976518,
                0.021159447729587556,
                -0.0016465982189401985,
                0.014179514721035958,
                -0.020829839631915094,
                -0.006687056738883257,
                -0.04372745007276535,
                -0.017226776108145715,
                0.02893908880650997,
                0.030887780711054803,
                -0.03687845543026924,
                0.03815840184688568,
                0.042716361582279208,
                0.07243701070547104,
                0.1578454226255417,
                0.17332452535629273,
                0.055315203964710239,
                0.02697724848985672,
                0.01938803866505623,
                -0.12608179450035096,
                -0.19955718517303468,
                -0.030794348567724229,
                -0.021732844412326814,
                -0.08205607533454895,
                -0.024434685707092286,
                -0.10363827645778656,
                -0.07049304246902466,
                0.010879399254918099,
                -0.01039868127554655,
                0.015214430168271065,
                -0.03981476277112961,
                -0.003926779143512249,
                0.0476081408560276,
                -0.0078022172674536709,
                0.042314279824495319,
                -0.004375987220555544,
                -0.01228521578013897,
                -0.037401847541332248,
                -0.05946864187717438,
                -0.031500935554504397,
                0.044527098536491397,
                0.07193471491336823,
                0.15544511377811433,
                -0.0037850576918572189,
                -0.1816989928483963,
                -0.022517379373311998,
                -0.10289379209280014,
                -0.11295609921216965,
                -0.15438812971115113,
                -0.09299053251743317,
                0.04655969515442848,
                0.030373141169548036,
                -0.02263724058866501,
                -0.05630683898925781,
                -0.030549194663763047,
                -0.0600571446120739,
                -0.05327998846769333,
                0.005519200582057238,
                -0.014203294180333615,
                -0.024038685485720636,
                -0.012284775264561177,
                0.014626299031078816,
                -0.02761794812977314,
                -0.033361297100782397,
                0.009154933504760266,
                -0.007241534069180489,
                -0.020328784361481668,
                -0.03598649427294731,
                -0.06470780074596405,
                -0.09077086299657822,
                -0.08368133753538132,
                -0.243747740983963,
                -0.16399995982646943,
                -0.1518532633781433,
                0.003700491739436984,
                0.026068150997161866,
                -0.14106637239456178,
                -0.24389143288135529,
                -0.22599704563617707,
                -0.08353431522846222,
                -0.017570510506629945,
                -0.06023292988538742,
                -0.05692848935723305,
                -0.15281866490840913,
                -0.07648263871669769,
                -0.055578846484422687,
                0.029542937874794008,
                -0.02113131806254387,
                -0.007122282404452562,
                0.0007326061022467911,
                -0.022673243656754495,
                -0.0005871494649909437,
                0.0441102497279644,
                0.05104785040020943,
                -0.03831372410058975,
                -0.10662802308797836,
                -0.12962976098060609,
                -0.2226506471633911,
                -0.31318628787994387,
                -0.1826658546924591,
                -0.2553362548351288,
                0.10664088279008866,
                0.252066433429718,
                0.0853128731250763,
                -0.13761237263679505,
                -0.1175931766629219,
                -0.0470036119222641,
                -0.19321826100349427,
                -0.13150076568126679,
                -0.14879421889781953,
                -0.07801613956689835,
                -0.22049149870872498,
                -0.07202640920877457,
                -0.01966671645641327,
                -0.02746516466140747,
                0.015981469303369523,
                -0.04182871803641319,
                -0.03925759717822075,
                0.013048786669969559,
                -0.049242034554481509,
                -0.009818571619689465,
                -0.07800612598657608,
                -0.13567529618740083,
                -0.2738158106803894,
                -0.2274235188961029,
                -0.16375574469566346,
                -0.2275945544242859,
                -0.265144020318985,
                -0.18159383535385133,
                0.06750436872243881,
                0.17138643562793733,
                -0.05141826719045639,
                -0.022620845586061479,
                -0.0747055634856224,
                -0.3042413592338562,
                -0.2143222987651825,
                -0.19612395763397218,
                -0.15239904820919038,
                -0.22798185050487519,
                -0.22654978930950166,
                -0.08110757172107697,
                -0.047865044325590137,
                -0.07294116169214249,
                -0.03679117187857628,
                0.0013132282765582204,
                0.02645026706159115,
                -0.050241898745298389,
                -0.0461152084171772,
                -0.04961024597287178,
                -0.12980900704860688,
                -0.34125828742980959,
                -0.3009435832500458,
                -0.20897671580314637,
                -0.09633541852235794,
                -0.11631552875041962,
                -0.22369705140590669,
                -0.21790559589862824,
                -0.01786871999502182,
                -0.029382169246673585,
                -0.02891017682850361,
                0.03592054918408394,
                -0.049784235656261447,
                -0.16306300461292268,
                -0.22630754113197328,
                -0.07119930535554886,
                -0.18467052280902863,
                -0.2547531723976135,
                -0.15675336122512818,
                -0.06669370830059052,
                -0.0970127284526825,
                -0.041973669081926349,
                -0.016598479822278024,
                0.0005533429211936891,
                -0.015705108642578126,
                0.0019866961520165207,
                -0.07054882496595383,
                -0.13482999801635743,
                -0.09665019810199738,
                -0.1416124850511551,
                -0.1548123061656952,
                -0.11064402759075165,
                -0.07289095968008042,
                -0.11663687229156494,
                -0.1239938884973526,
                -0.07847438007593155,
                0.1126442477107048,
                0.046455658972263339,
                -0.02877228334546089,
                -0.08708826452493668,
                -0.018162764608860017,
                0.0431208461523056,
                0.013445970602333546,
                -0.11090359091758728,
                -0.17271208763122559,
                -0.2786392271518707,
                -0.04620445519685745,
                0.03272662311792374,
                -0.09684564173221588,
                -0.042556192725896838,
                0.016218122094869615,
                -0.04782184958457947,
                0.013585454784333706,
                0.027740834280848504,
                -0.06316669285297394,
                -0.17512787878513337,
                -0.1396559476852417,
                -0.03561553359031677,
                -0.15232740342617036,
                -0.16457012295722962,
                -0.2376614511013031,
                -0.14198096096515656,
                -0.23232927918434144,
                -0.14210690557956696,
                -0.09143703430891037,
                -0.23361580073833466,
                -0.1943129450082779,
                -0.1887284368276596,
                -0.07345445454120636,
                0.05869228392839432,
                0.06359811127185822,
                -0.17353124916553498,
                -0.13945434987545014,
                -0.18766601383686067,
                0.012183316983282566,
                -0.04327508062124252,
                -0.06219014152884483,
                -0.04207677021622658,
                -0.00012396056263241917,
                -0.0448615625500679,
                -0.051250506192445758,
                -0.04845419526100159,
                -0.08440931141376496,
                -0.15721966326236726,
                -0.10831268876791,
                -0.05398198589682579,
                -0.22876060009002686,
                -0.19744990766048432,
                -0.2425009310245514,
                -0.24549207091331483,
                -0.22330434620380402,
                -0.20773710310459138,
                -0.35882556438446047,
                -0.3891197741031647,
                -0.31570449471473696,
                -0.2761043310165405,
                -0.036603737622499469,
                0.15410664677619935,
                -0.0109650157392025,
                -0.3169214129447937,
                -0.1779511570930481,
                -0.06804405897855759,
                0.042210403829813007,
                0.029044263064861299,
                -0.07491070032119751,
                -0.010478620417416096,
                -0.040340617299079898,
                -0.03331907466053963,
                0.03922497481107712,
                0.030295295640826227,
                -0.020939704030752183,
                -0.1547957807779312,
                -0.12400837242603302,
                -0.11368852108716965,
                -0.23285381495952607,
                -0.2864440381526947,
                -0.20091912150382996,
                -0.07783188670873642,
                -0.21202047169208527,
                -0.31318268179893496,
                -0.2788982093334198,
                -0.40866124629974368,
                -0.3388325273990631,
                -0.28532174229621889,
                0.04367872327566147,
                0.03884774073958397,
                -0.12371685355901718,
                -0.36958613991737368,
                -0.15246430039405824,
                -0.026638058945536615,
                0.14431628584861756,
                0.07318774610757828,
                0.05192510783672333,
                0.012871997430920601,
                -0.0090520940721035,
                -0.0300515815615654,
                -0.026549091562628747,
                0.02183699980378151,
                -0.01770664006471634,
                -0.0645289495587349,
                -0.00031523103825747967,
                -0.10888101160526276,
                -0.09541624784469605,
                -0.10027991980314255,
                -0.09357079863548279,
                -0.07581555098295212,
                -0.10529085993766785,
                -0.2340315580368042,
                -0.23774690926074983,
                -0.31246674060821535,
                -0.33547985553741457,
                -0.234867662191391,
                -0.14044420421123506,
                0.010528886690735817,
                -0.17015162110328675,
                -0.029135772958397867,
                0.01468281727284193,
                0.07398885488510132,
                0.16902610659599305,
                0.17913112044334413,
                0.08873254805803299,
                0.052165091037750247,
                -0.0016287396429106594,
                0.015258045867085457,
                -0.03283022344112396,
                -0.006612235214561224,
                -0.02029687538743019,
                0.07655569165945053,
                0.15136636793613435,
                0.041457198560237887,
                0.027961766347289087,
                -0.11754981428384781,
                -0.1595340520143509,
                -0.20021681487560273,
                -0.31833720207214358,
                -0.2099599689245224,
                -0.2636818289756775,
                -0.4666016399860382,
                -0.45418253540992739,
                -0.28748923540115359,
                -0.117704838514328,
                -0.10156051069498062,
                0.018587863072752954,
                0.12312611192464829,
                0.004269545432180166,
                0.03230274096131325,
                0.04941999167203903,
                0.08762286603450775,
                0.12532265484333039,
                -0.02702946774661541,
                -0.021060889586806299,
                0.006256684195250273,
                -0.037688322365283969,
                0.014959418214857579,
                0.013973439112305642,
                0.04684504121541977,
                0.2625274062156677,
                0.21015292406082154,
                0.1258496195077896,
                -0.07098410278558731,
                -0.16339169442653657,
                -0.15965822339057923,
                -0.22427719831466676,
                -0.33482277393341067,
                -0.2833009362220764,
                -0.41136544942855837,
                -0.2748432755470276,
                -0.1292787492275238,
                0.12395034730434418,
                0.1212320327758789,
                0.18956777453422547,
                0.08962307125329972,
                0.10546013712882996,
                0.12282127887010575,
                0.08052649348974228,
                0.11380541324615479,
                0.13784055411815644,
                0.019916687160730363,
                0.0075403000228106979,
                -0.02059544064104557,
                0.04968492314219475,
                -0.025035813450813295,
                -0.031137222424149514,
                0.13664023578166963,
                0.3421311676502228,
                0.32553374767303469,
                0.263990581035614,
                0.22087252140045167,
                0.15884768962860108,
                0.18766696751117707,
                -0.04890279844403267,
                -0.22039936482906342,
                -0.37931543588638308,
                -0.19176757335662843,
                0.1537683755159378,
                0.12855422496795655,
                0.27208155393600466,
                0.34852930903434756,
                0.3363272547721863,
                0.1651991307735443,
                0.13026101887226106,
                0.2353203147649765,
                0.1453014612197876,
                0.16998715698719026,
                0.11867345124483109,
                -0.018721450120210649,
                0.04329821094870567,
                0.003098757704719901,
                0.013189883902668953,
                -0.04842991754412651,
                0.001272285939194262,
                0.13441774249076844,
                0.30786794424057009,
                0.30116724967956545,
                0.35519784688949587,
                0.471240758895874,
                0.4618649482727051,
                0.4451620876789093,
                0.3667229413986206,
                0.3163679242134094,
                0.22548018395900727,
                0.3898279666900635,
                0.6052544116973877,
                0.5192792415618897,
                0.39541095495224,
                0.4277413785457611,
                0.35527515411376955,
                0.07383453100919724,
                0.24697764217853547,
                0.3667421340942383,
                0.2623937129974365,
                0.1813352257013321,
                0.06100817024707794,
                0.03233950212597847,
                0.03907694295048714,
                -0.049916282296180728,
                0.03469805791974068,
                -0.06032378971576691,
                0.0014461828395724297,
                0.18356958031654359,
                0.25727906823158266,
                0.20661483705043794,
                0.20063269138336183,
                0.5233761668205261,
                0.6360448598861694,
                0.6273505687713623,
                0.5797916054725647,
                0.6634420156478882,
                0.583956241607666,
                0.543252170085907,
                0.5485776662826538,
                0.38596802949905398,
                0.39151304960250857,
                0.37910810112953188,
                0.3015289902687073,
                0.13389824330806733,
                0.21011564135551454,
                0.298218309879303,
                0.1489812284708023,
                0.09251391887664795,
                0.010724753141403199,
                0.009022051468491555,
                0.015640921890735627,
                0.016913361847400667,
                0.03452196344733238,
                0.04309206083416939,
                0.054101139307022098,
                0.18767882883548737,
                0.18038912117481233,
                0.15219746530056,
                0.137518972158432,
                0.34940019249916079,
                0.47196346521377566,
                0.31643372774124148,
                0.29060202836990359,
                0.29953789710998537,
                0.40863174200057986,
                0.32346323132514956,
                0.35002103447914126,
                0.2985081970691681,
                0.13088274002075196,
                0.26172128319740298,
                0.12731294333934785,
                0.02275535650551319,
                0.07808395475149155,
                -0.007623818702995777,
                0.11249995976686478,
                0.042827531695365909,
                0.05434839427471161,
                -0.014210068620741368,
                0.024767940863966943,
                -0.03809652477502823,
                -0.0476452112197876,
                0.015221151523292065,
                0.020540842786431314,
                0.12216148525476456,
                -0.015066780149936676,
                -0.12432724982500076,
                -0.037645529955625537,
                -0.024004776030778886,
                0.10958828777074814,
                0.057778507471084598,
                0.07975351065397263,
                -0.05443333461880684,
                -0.08377081155776978,
                -0.005677798762917519,
                -0.04646293446421623,
                0.01743282936513424,
                0.05679113045334816,
                -0.016880296170711519,
                -0.03423406183719635,
                -0.18016880750656129,
                0.002509565092623234,
                0.009599436074495316,
                0.06518032401800156,
                0.06949101388454437,
                0.04542391747236252,
                0.012634615413844586,
                -0.03313683718442917,
                0.03277694061398506,
                0.009378147311508656,
                -0.022765599191188813,
                0.0382714606821537,
                0.012329955585300923,
                -0.032210640609264377,
                -0.285202294588089,
                -0.2481328547000885,
                -0.28853562474250796,
                -0.022733870893716813,
                0.019775649532675744,
                -0.15335753560066224,
                -0.17194373905658723,
                -0.19599881768226624,
                -0.33108311891555788,
                -0.2372458577156067,
                -0.12230963259935379,
                -0.20094314217567445,
                -0.13943813741207124,
                -0.14794540405273438,
                -0.0997575893998146,
                0.0012132576666772366,
                0.05015672370791435,
                0.059430886059999469,
                0.013315727934241295,
                0.01030085701495409,
                0.020911110565066339,
                -0.022597944363951684,
                0.0493975467979908,
                -0.02377941459417343,
                -0.0022072975989431144,
                -0.025562945753335954,
                0.04795675724744797,
                -0.07075030356645584,
                -0.11019843071699143,
                -0.2465067058801651,
                -0.18304932117462159,
                -0.15628471970558167,
                -0.04185241088271141,
                -0.07319848239421845,
                -0.2351243495941162,
                -0.3328682482242584,
                -0.3266066610813141,
                -0.3714785575866699,
                -0.3557306230068207,
                -0.22847595810890199,
                -0.1417560875415802,
                -0.10513992607593537,
                0.015921875834465028,
                0.07127679884433747,
                0.09272762387990952,
                0.02886948548257351,
                0.03327721729874611,
                0.04719073697924614,
                0.0034534968435764314,
                -0.004814050160348415,
                -0.041963886469602588,
                0.009104684926569462,
                -0.036630306392908099,
                0.03229326009750366,
                -0.0469575971364975,
                -0.0470961332321167,
                -0.08484525978565216,
                -0.07161246240139008,
                -0.13959024846553803,
                -0.16197820007801057,
                -0.31200936436653139,
                -0.3536980450153351,
                -0.18321451544761659,
                -0.17612406611442567,
                -0.24606692790985108,
                -0.20868149399757386,
                -0.175992950797081,
                -0.1386549472808838,
                -0.0873107984662056,
                -0.07217530906200409,
                0.027192648500204088,
                0.0028251518961042167,
                0.009304124861955643,
                -0.027055859565734865,
                0.06960883736610413,
                -0.024695992469787599,
                0.007523386739194393,
                0.004124509170651436,
                0.0011144208256155253,
                -0.041113030165433887,
                -0.005814419128000736,
                -0.03522670641541481,
                0.0030905124731361868,
                -0.03059692680835724,
                -0.0945291742682457,
                -0.09394420683383942,
                -0.12230327725410462,
                -0.16984909772872926,
                -0.19315873086452485,
                -0.2224695086479187,
                -0.2902558445930481,
                -0.28726696968078616,
                -0.2696828842163086,
                -0.2407018542289734,
                -0.21195518970489503,
                -0.1473371535539627,
                -0.047305572777986529,
                -0.04221676290035248,
                -0.06993459910154343,
                -0.07384973019361496,
                -0.01657569780945778,
                0.004401031415909529,
                0.021389856934547426,
                -0.025955546647310258,
                0.013437431305646897,
                0.011837317608296872,
                -0.041217584162950519,
                0.04526180401444435,
                0.039716098457574847,
                -0.03706251457333565,
                -0.02940591424703598,
                -0.038576070219278339,
                -0.02262873388826847,
                -0.05348898842930794,
                -0.09009891003370285,
                -0.12397181987762451,
                -0.07352839410305023,
                -0.10943635553121567,
                -0.04602031037211418,
                -0.0768095850944519,
                -0.09797496348619461,
                -0.09723393619060517,
                -0.028256187215447427,
                -0.05968136340379715,
                -0.04215066507458687,
                -0.05987928807735443,
                0.012694747187197209,
                0.023410344496369363,
                -0.05187542736530304,
                0.02030148170888424,
                -0.02511759102344513,
                0.03302725777029991,
                -0.008251291699707508,
                -0.02094350755214691,
                0.01214693859219551,
                0.040364041924476626,
                -0.004785351920872927,
                -0.007689633406698704,
                0.028621304780244829,
                -0.0017992345383390785,
                0.004889830481261015,
                0.0398944616317749,
                0.0269928015768528,
                -0.00921389926224947,
                0.0025566923432052137,
                0.014352843165397644,
                -0.016007257625460626,
                -0.02111869491636753,
                -0.021861307322978975,
                -0.059942588210105899,
                0.012850228697061539,
                0.01034094113856554,
                0.028088100254535676,
                -0.01017057429999113,
                0.004393285606056452,
                -0.030878808349370958,
                0.02708284743130207,
                -0.020006604492664338,
                0.016729101538658143,
                0.0037172611337155105,
                0.03555671498179436,
                -0.035340700298547748,
                0.03132959455251694,
                -0.03218309208750725,
                0.037774380296468738,
                -0.01490679569542408,
                0.011353079229593277,
                -0.0476091206073761,
                0.014201541431248188,
                -0.03144482523202896,
                0.005950835067778826,
                -0.04045778140425682,
                -0.006364827509969473,
                -0.012498358264565468,
                -0.03850805014371872,
                0.022462278604507448,
                -0.010770082473754883,
                -0.034154146909713748,
                0.028038885444402696,
                0.03606744110584259,
                0.017889751121401788,
                -0.017289109528064729,
                -0.003156813560053706,
                -0.04091240093111992,
                0.04618971794843674,
                0.007067464292049408,
                0.044727884232997897,
                0.04713048040866852,
                0.02202260121703148,
                -0.01529962383210659,
                0.045860134065151218,
                -0.038995545357465747,
                0.02558126486837864,
                -0.025095269083976747,
                0.012800470925867558,
                -0.008301851339638234,
                -0.03862306848168373,
                0.011690199375152588,
                0.004454338923096657,
                -0.02711171843111515,
                -0.04092497006058693,
                -0.010915976017713547,
                0.02923479489982128,
                -0.02139689400792122,
                -0.0017388685373589397,
                0.015920065343379976,
                -0.024497870355844499,
                0.0014227958163246513,
                -0.016835490241646768,
                0.0347999669611454,
                0.03827773407101631,
                0.028669197112321855,
                0.006171374581754208,
                0.03066175803542137,
                0.03582751005887985,
                0.0028458230663090946,
                0.01781611144542694,
                0.022241998463869096,
                -0.028372809290885927,
                -0.019293082877993585,
                -0.009634681046009064,
                0.014170674607157708,
                -0.01963823474943638,
                -0.020515844225883485,
                -0.02775055728852749,
                -0.007619544398039579,
                -0.021487245336174966,
                -0.034235287457704547,
                0.024250950664281846,
                0.0184699147939682,
                -0.0005380222573876381,
                0.010964304208755494,
                -0.015236285515129567,
                -0.013420145027339459,
                0.014137976802885533,
                -0.02077828347682953,
                0.017319483682513238,
                -0.025269359350204469,
                0.0001686795148998499,
                -0.031352318823337558,
                -0.020089784637093545,
                -0.007578703109174967,
                0.013420099392533303,
                0.03724982589483261,
                -0.003516269149258733,
                -0.032797921448946,
                0.004833143204450607,
                0.04491960629820824,
                -0.010922926478087902,
                -0.0404408760368824,
                0.0234107356518507,
                -0.010248676873743534,
                -0.008188806474208832,
                -0.029200907796621324,
                0.018384139984846116,
                -0.023910606279969217,
                -0.043053772300481799,
                0.006253416649997234,
                0.020217645913362504,
                -0.030688652768731118,
                -0.022150794044137,
                -0.07130493223667145,
                -0.010399038903415203,
                -0.0009848808404058219,
                -0.05469108000397682,
                -0.10612918436527252,
                -0.07572159171104431,
                -0.053066857159137729,
                -0.07443534582853317,
                -0.024159656837582589,
                0.0420893058180809,
                -0.004183294717222452,
                -0.037955962121486667,
                0.04160472750663757,
                0.04810459911823273,
                0.046439580619335178,
                -0.04967692121863365,
                -0.0023714725393801929,
                0.04839975759387016,
                -0.02256963402032852,
                0.07067031413316727,
                0.009684068150818348,
                0.05503574758768082,
                0.0534389354288578,
                0.10979574918746948,
                -0.029232921078801156,
                -0.03339783102273941,
                -0.1403152048587799,
                -0.14504770934581757,
                -0.11633235216140747,
                -0.2027512490749359,
                -0.17802093923091889,
                -0.08728823065757752,
                -0.031387586146593097,
                -0.04175301641225815,
                -0.04139827936887741,
                0.008134671486914158,
                -0.05649973824620247,
                0.0640348345041275,
                0.012640123255550862,
                0.05561088025569916,
                0.003582501318305731,
                0.04077836126089096,
                0.03211640194058418,
                -0.03909691050648689,
                -0.01614917442202568,
                0.00733657693490386,
                0.07105717808008194,
                0.07814226299524307,
                0.11281166970729828,
                0.0423993244767189,
                0.06555479019880295,
                0.024881232529878618,
                -0.02786989137530327,
                -0.008104732260107994,
                0.15500397980213166,
                0.08908127248287201,
                0.11889994889497757,
                0.15237461030483247,
                0.011358948424458504,
                0.02161170169711113,
                0.10716505348682404,
                0.032291244715452197,
                -0.11574018001556397,
                -0.0017110442277044058,
                0.14974942803382874,
                0.08787953853607178,
                0.055438440293073657,
                0.048832233995199206,
                0.021392500028014184,
                -0.02139231562614441,
                0.04994508996605873,
                0.035016268491744998,
                0.002200834220275283,
                0.019979894161224366,
                0.13857126235961915,
                0.1385090947151184,
                0.11260173469781876,
                0.07157883793115616,
                0.09674369543790817,
                0.02115435153245926,
                0.04781152307987213,
                0.058617785573005679,
                0.14351515471935273,
                0.10020443052053452,
                0.12155982106924057,
                0.212638258934021,
                0.14934858679771424,
                0.20771589875221253,
                0.24673569202423097,
                0.2772328853607178,
                0.1588885635137558,
                0.08880630135536194,
                0.12841583788394929,
                0.1697450578212738,
                0.052117686718702319,
                0.0037165614776313307,
                -0.030224958434700967,
                -0.004632500931620598,
                -0.033521633595228198,
                0.034521058201789859,
                0.023951146751642228,
                0.12628042697906495,
                0.24343061447143556,
                0.12071317434310913,
                0.029857372865080835,
                0.08851460367441178,
                0.08032920211553574,
                0.06878601759672165,
                0.0745810940861702,
                0.22604218125343324,
                0.10965631902217865,
                0.20185188949108125,
                0.11429627984762192,
                0.23709340393543244,
                0.32494136691093447,
                0.22766898572444917,
                0.1312250941991806,
                0.22996218502521516,
                0.15969029068946839,
                0.037832845002412799,
                -0.021330194547772409,
                0.06212373077869415,
                0.16077080368995667,
                0.054519254714250568,
                0.02539215423166752,
                0.01721099764108658,
                -0.03306449204683304,
                0.029389534145593644,
                0.07213503122329712,
                0.11439008265733719,
                0.19316494464874268,
                0.07859215885400772,
                -0.060950249433517459,
                -0.006242870818823576,
                0.06546700745820999,
                0.10863185673952103,
                0.02378203347325325,
                -0.037968214601278308,
                0.02936645969748497,
                -0.0030897019896656276,
                -0.08846805989742279,
                0.01953074522316456,
                0.15999403595924378,
                0.045771583914756778,
                -0.06702211499214173,
                0.033996544778347018,
                -0.04739060625433922,
                -0.1805911809206009,
                -0.10689357668161392,
                0.08441083878278732,
                0.14419876039028169,
                0.01184744480997324,
                0.014213993214070797,
                0.005017599556595087,
                0.008913419209420681,
                0.02532896399497986,
                0.051682595163583758,
                0.15101341903209687,
                0.09352674335241318,
                0.08582838624715805,
                0.07407725602388382,
                0.029372122138738633,
                -0.14223840832710267,
                0.007010597735643387,
                -0.2513909637928009,
                -0.03839672729372978,
                0.020920107141137124,
                -0.1407524198293686,
                -0.19877299666404725,
                -0.34329360723495486,
                -0.2813921570777893,
                -0.3290479779243469,
                -0.3391152620315552,
                -0.20005349814891816,
                -0.1135430783033371,
                -0.2771601676940918,
                -0.1644556075334549,
                0.03430592268705368,
                0.12276961654424668,
                0.035608962178230289,
                -0.016974156722426416,
                0.015611689537763596,
                -0.03718280419707298,
                -0.0015214933082461358,
                0.05875859037041664,
                0.06572094559669495,
                -0.02325592190027237,
                0.08185072988271713,
                -0.0028530640993267299,
                -0.03911350294947624,
                -0.2966820001602173,
                -0.2978423237800598,
                -0.23538410663604737,
                -0.0970243364572525,
                -0.17666317522525788,
                -0.3883700668811798,
